/* Generated by Edge Impulse
 *
 * Permission is hereby granted, free of charge, to any person obtaining a copy
 * of this software and associated documentation files (the "Software"), to deal
 * in the Software without restriction, including without limitation the rights
 * to use, copy, modify, merge, publish, distribute, sublicense, and/or sell
 * copies of the Software, and to permit persons to whom the Software is
 * furnished to do so, subject to the following conditions:
 *
 * The above copyright notice and this permission notice shall be included in
 * all copies or substantial portions of the Software.
 *
 * THE SOFTWARE IS PROVIDED "AS IS", WITHOUT WARRANTY OF ANY KIND, EXPRESS OR
 * IMPLIED, INCLUDING BUT NOT LIMITED TO THE WARRANTIES OF MERCHANTABILITY,
 * FITNESS FOR A PARTICULAR PURPOSE AND NONINFRINGEMENT. IN NO EVENT SHALL THE
 * AUTHORS OR COPYRIGHT HOLDERS BE LIABLE FOR ANY CLAIM, DAMAGES OR OTHER
 * LIABILITY, WHETHER IN AN ACTION OF CONTRACT, TORT OR OTHERWISE, ARISING FROM,
 * OUT OF OR IN CONNECTION WITH THE SOFTWARE OR THE USE OR OTHER DEALINGS IN THE
 * SOFTWARE.
 */
// Generated on: 16.05.2024 00:25:37

#include <stdio.h>
#include <stdlib.h>
#include "edge-impulse-sdk/tensorflow/lite/c/builtin_op_data.h"
#include "edge-impulse-sdk/tensorflow/lite/c/common.h"
#include "edge-impulse-sdk/tensorflow/lite/micro/micro_mutable_op_resolver.h"
#include "edge-impulse-sdk/porting/ei_classifier_porting.h"

#if EI_CLASSIFIER_PRINT_STATE
#if defined(__cplusplus) && EI_C_LINKAGE == 1
extern "C" {
    extern void ei_printf(const char *format, ...);
}
#else
extern void ei_printf(const char *format, ...);
#endif
#endif

#if defined __GNUC__
#define ALIGN(X) __attribute__((aligned(X)))
#elif defined _MSC_VER
#define ALIGN(X) __declspec(align(X))
#elif defined __TASKING__
#define ALIGN(X) __align(X)
#elif defined __ICCARM__
#define ALIGN(x) __attribute__((aligned(x)))
#endif

#ifndef EI_MAX_SCRATCH_BUFFER_COUNT
#ifndef CONFIG_IDF_TARGET_ESP32S3
#define EI_MAX_SCRATCH_BUFFER_COUNT 8
#else
#define EI_MAX_SCRATCH_BUFFER_COUNT 16
#endif // CONFIG_IDF_TARGET_ESP32S3
#endif // EI_MAX_SCRATCH_BUFFER_COUNT

#ifndef EI_MAX_OVERFLOW_BUFFER_COUNT
#define EI_MAX_OVERFLOW_BUFFER_COUNT 10
#endif // EI_MAX_OVERFLOW_BUFFER_COUNT

using namespace tflite;
using namespace tflite::ops;
using namespace tflite::ops::micro;

namespace {

#if defined(EI_CLASSIFIER_ALLOCATION_STATIC_HIMAX) || defined(EI_CLASSIFIER_ALLOCATION_STATIC_HIMAX_GNU)
constexpr int kTensorArenaSize = 14448;
#else
constexpr int kTensorArenaSize = 13424;
#endif

#if defined(EI_CLASSIFIER_ALLOCATION_STATIC)
uint8_t tensor_arena[kTensorArenaSize] ALIGN(16);
#elif defined(EI_CLASSIFIER_ALLOCATION_STATIC_HIMAX)
#pragma Bss(".tensor_arena")
uint8_t tensor_arena[kTensorArenaSize] ALIGN(16);
#pragma Bss()
#elif defined(EI_CLASSIFIER_ALLOCATION_STATIC_HIMAX_GNU)
uint8_t tensor_arena[kTensorArenaSize] ALIGN(16) __attribute__((section(".tensor_arena")));
#else
#define EI_CLASSIFIER_ALLOCATION_HEAP 1
uint8_t* tensor_arena = NULL;
#endif

static uint8_t* tensor_boundary;
static uint8_t* current_location;

template <int SZ, class T> struct TfArray {
  int sz; T elem[SZ];
};

enum used_operators_e {
  OP_RESHAPE, OP_CONV_2D, OP_MAX_POOL_2D, OP_FULLY_CONNECTED, OP_SOFTMAX,  OP_LAST
};

struct TensorInfo_t { // subset of TfLiteTensor used for initialization from constant memory
  TfLiteAllocationType allocation_type;
  TfLiteType type;
  void* data;
  TfLiteIntArray* dims;
  size_t bytes;
  TfLiteQuantization quantization;
};

typedef struct {
  TfLiteTensor tensor;
  int16_t index;
} TfLiteTensorWithIndex;

typedef struct {
  TfLiteEvalTensor tensor;
  int16_t index;
} TfLiteEvalTensorWithIndex;

TfLiteContext ctx{};
static const int MAX_TFL_TENSOR_COUNT = 4;
static TfLiteTensorWithIndex tflTensors[MAX_TFL_TENSOR_COUNT];
static const int MAX_TFL_EVAL_COUNT = 4;
static TfLiteEvalTensorWithIndex tflEvalTensors[MAX_TFL_EVAL_COUNT];
TfLiteRegistration registrations[OP_LAST];

namespace g0 {
const TfArray<2, int> tensor_dimension0 = { 2, { 1,1924 } };
const TfArray<1, float> quant0_scale = { 1, { 0.040235601365566254, } };
const TfArray<1, int> quant0_zero = { 1, { 7 } };
const TfLiteAffineQuantization quant0 = { (TfLiteFloatArray*)&quant0_scale, (TfLiteIntArray*)&quant0_zero, 0 };
const ALIGN(16) int32_t tensor_data1[4] = { 1, 1, 148, 13, };
const TfArray<1, int> tensor_dimension1 = { 1, { 4 } };
const ALIGN(16) int32_t tensor_data2[4] = { 1, 148, 1, 32, };
const TfArray<1, int> tensor_dimension2 = { 1, { 4 } };
const ALIGN(16) int32_t tensor_data3[4] = { 1, 1, 74, 32, };
const TfArray<1, int> tensor_dimension3 = { 1, { 4 } };
const ALIGN(16) int32_t tensor_data4[4] = { 1, 74, 1, 32, };
const TfArray<1, int> tensor_dimension4 = { 1, { 4 } };
const ALIGN(16) int32_t tensor_data5[4] = { 1, 1, 37, 32, };
const TfArray<1, int> tensor_dimension5 = { 1, { 4 } };
const ALIGN(16) int32_t tensor_data6[4] = { 1, 37, 1, 64, };
const TfArray<1, int> tensor_dimension6 = { 1, { 4 } };
const ALIGN(16) int32_t tensor_data7[4] = { 1, 1, 19, 64, };
const TfArray<1, int> tensor_dimension7 = { 1, { 4 } };
const ALIGN(16) int32_t tensor_data8[4] = { 1, 19, 1, 64, };
const TfArray<1, int> tensor_dimension8 = { 1, { 4 } };
const ALIGN(8) int32_t tensor_data9[2] = { -1, 640, };
const TfArray<1, int> tensor_dimension9 = { 1, { 2 } };
const ALIGN(8) int32_t tensor_data10[2] = { 176, -176, };
const TfArray<1, int> tensor_dimension10 = { 1, { 2 } };
const TfArray<1, float> quant10_scale = { 1, { 5.8275662013329566e-05, } };
const TfArray<1, int> quant10_zero = { 1, { 0 } };
const TfLiteAffineQuantization quant10 = { (TfLiteFloatArray*)&quant10_scale, (TfLiteIntArray*)&quant10_zero, 0 };
const ALIGN(16) int8_t tensor_data11[2*64] = { 
  -95, 27, -54, 83, 90, -38, 9, 76, -127, 1, -17, -18, -95, 44, 61, -7, 29, 20, 65, -90, -65, 69, 73, 107, 98, -38, -49, -56, 53, 101, 117, 28, -70, -20, -93, -70, 90, 60, 38, -16, -115, 106, -16, -28, 46, 57, 4, -88, -10, 49, 29, 22, -71, -11, -43, -78, -115, 48, 59, -52, -113, 69, -119, 60, 
  38, 110, -97, 24, -69, 56, 53, -3, -29, -84, 106, -121, 18, 76, -83, 89, -99, 85, 18, -41, -101, 7, 44, -26, 11, -106, -14, -86, 106, -109, -75, -13, 50, 117, -55, -42, 14, 90, 119, -104, 2, 68, 116, 87, -41, -45, -43, -51, -89, -113, -6, 29, 99, 64, -66, 23, -100, 65, 88, -84, 9, -101, -13, 8, 
};
const TfArray<2, int> tensor_dimension11 = { 2, { 2,64 } };
const TfArray<1, float> quant11_scale = { 1, { 0.0025615703780204058, } };
const TfArray<1, int> quant11_zero = { 1, { 0 } };
const TfLiteAffineQuantization quant11 = { (TfLiteFloatArray*)&quant11_scale, (TfLiteIntArray*)&quant11_zero, 0 };
const ALIGN(16) int32_t tensor_data12[64] = { -253, 59, -498, 356, 364, 59, 244, 525, 7, 556, -27, 189, -231, -366, -212, 268, 331, -394, 618, 311, 1112, 255, 954, 396, 73, 63, 225, -173, -130, 57, 92, 679, 159, 72, 111, -135, -104, 122, -65, 533, -211, 591, -139, 285, 296, 284, 564, 77, 520, 196, 572, -341, -492, -217, -219, -161, -105, -61, 364, 397, 184, 92, -54, 496, };
const TfArray<1, int> tensor_dimension12 = { 1, { 64 } };
const TfArray<1, float> quant12_scale = { 1, { 1.5880928913247772e-05, } };
const TfArray<1, int> quant12_zero = { 1, { 0 } };
const TfLiteAffineQuantization quant12 = { (TfLiteFloatArray*)&quant12_scale, (TfLiteIntArray*)&quant12_zero, 0 };
const ALIGN(16) int8_t tensor_data13[64*640] = { 
  -3, -57, -51, -23, -81, -62, -60, 13, -39, -75, -82, -57, 28, -2, -65, -1, 59, 53, 53, -81, 2, -68, 26, -43, 63, -9, -49, -42, 52, 37, 3, 97, -49, 59, -37, -8, -73, -44, 43, -28, 19, -4, 62, 68, 39, 57, -42, -19, -55, 40, -67, -64, 5, 64, -62, -94, -64, -29, -7, -29, 57, 28, 16, 52, 33, -66, 62, 76, 28, 54, 25, 11, -74, -51, -3, -35, -5, -61, -27, 85, -6, -25, 56, 49, -43, -37, -73, 12, -56, -56, -41, 20, -6, 80, 38, -42, 70, 57, 75, 48, -78, 47, 78, -43, 50, -55, -32, 16, -22, -56, 31, 42, -25, -42, 56, -67, 76, -64, -13, -8, -60, 47, -5, 36, 0, 20, 79, -14, -37, -28, 8, -60, 7, 41, 35, 78, 61, 22, -3, -75, 13, 44, 37, -9, 38, 53, 38, 52, -23, -30, 19, 67, -6, -19, -34, -37, -19, 43, 50, 68, 3, -31, 17, 56, -37, -97, 10, -1, -31, 73, -16, 2, -49, 54, 75, 65, -46, 13, -36, 1, -71, -30, -25, 26, 51, 40, -7, 37, 58, -35, -8, 12, 31, 52, -44, -26, 66, 70, -25, 81, 48, 20, 49, 34, -11, 63, -8, -58, 44, 0, 64, 22, -45, -7, 57, -5, -46, -54, 60, -32, 15, -32, -32, 34, 21, -36, 70, -76, -66, -64, 37, 19, -24, 45, -69, 72, 25, 8, 87, 52, -3, -56, 25, 73, -32, -7, -40, -64, -52, 46, 18, 37, 45, 48, 67, 3, -34, 66, 28, 67, -50, -57, 84, 77, 72, -13, 38, 26, 23, -24, 55, -27, -77, 30, -68, -61, -69, 8, 53, -32, -30, 0, 9, -63, 63, -86, 73, -49, 67, -43, 80, -25, 66, -34, -45, 13, -34, 14, 15, 3, 22, 14, 88, -35, -94, 16, -19, -44, -64, -45, -48, 42, 2, -58, -2, 31, 55, -62, -55, -3, 3, 53, -18, -45, 25, 2, 33, 27, -84, -5, -70, 50, -42, 36, 18, -64, -31, 52, 54, 19, 27, -71, -9, 62, 53, 45, 84, -37, -11, -22, -32, -77, 34, 36, 3, 36, 70, 27, -18, -25, 44, -23, 63, -32, -46, 57, -3, -14, 40, -58, 61, 90, 8, -61, -85, -40, 68, -12, 80, 52, -15, 33, -58, -17, 74, -9, -33, 64, 47, 54, -60, -60, 3, 42, 80, 36, 1, 51, -57, -81, -78, 15, 6, 39, -27, -55, 37, 7, 35, 18, -51, -44, 46, -40, 65, 17, 56, 63, 56, 67, 2, -65, 44, 22, 13, 19, 30, -69, 53, -63, 58, 18, -84, 35, -81, 79, -46, -4, 57, -32, 34, 60, -23, 14, -40, 28, -89, 55, -61, -75, -35, 17, -83, 44, 22, -77, -43, 25, -21, -95, 10, 5, 57, 66, 41, 0, 9, -26, -55, 48, -36, 26, -57, -43, 90, 82, -14, -34, 47, -18, -49, -64, -2, 73, 44, -91, -36, 35, -22, -49, 11, 87, 21, 24, 39, -56, -41, -26, -65, 73, 0, -40, 40, -68, -57, -67, -43, 45, 45, 19, 86, -15, -16, -13, -88, 68, -2, 35, 31, 52, 75, 27, 73, -62, -62, -47, 1, -15, 57, 7, -96, -62, 100, 36, 54, -69, 57, 1, -32, 64, 45, -44, 4, 68, -9, -21, -53, 74, 7, 3, 0, 18, 79, -8, -20, -52, 24, 41, 66, -18, -61, -19, 47, -73, -21, -4, -4, -65, -42, 57, 41, 20, -13, -17, 52, 54, 29, -45, 64, -51, -57, 14, 52, -26, 6, -62, -77, -70, 33, -53, -62, -63, 78, 70, -45, 67, -63, -34, -74, 61, -4, -6, -18, 38, 38, 73, 57, 78, 63, 35, 42, 81, -86, -4, 2, -6, 47, 63, 23, -83, 87, -19, -85, 62, 67, -8, 18, -16, -57, 55, 18, -64, -56, 10, -42, -40, 13, 33, -53, 1, 
  -67, -15, -45, 0, 18, 73, -45, 12, -48, 5, -68, 9, 30, -23, 68, 77, -96, -21, 62, 56, 34, 64, 54, -43, -59, -53, -72, -37, -23, -42, -21, 43, -61, -6, -10, -72, -23, -27, -17, -47, -20, -14, 82, -50, 34, -60, 60, 77, -75, 44, 17, -57, 13, 67, -31, -76, -24, -51, 13, 60, 74, -34, -11, 67, 41, 37, 36, -70, -50, 59, 2, -67, 62, -79, -66, 51, 24, 78, -27, -54, 9, 55, 20, 24, -59, 25, 26, 78, 30, -44, -2, -51, -9, 43, 90, -51, -71, 74, -3, 50, 14, -22, -46, 13, 43, -66, 24, -1, 87, -2, -25, -27, 94, -55, -67, 48, -5, -69, 22, -50, -58, 70, -38, -15, 65, 53, 73, 55, -58, 82, 21, 0, -6, 18, 29, -34, -55, -32, 5, -49, 71, 49, 44, -30, -79, -56, 1, -35, 27, 70, -26, -27, 64, -23, 27, -32, 80, -67, -8, -1, -9, 89, -18, 26, 49, -12, -2, -65, 69, -69, -22, -10, 39, -13, -42, 54, -71, 63, 11, -54, 11, 48, -49, -26, -73, -42, 56, 73, -46, 10, -21, -31, -65, 50, -3, 36, 43, 83, -22, 83, 1, 54, -50, -67, -66, -58, -67, -42, -24, 75, -70, 16, -88, -66, 46, 18, 62, 12, 10, 51, -43, 59, -84, -28, -65, 39, 64, 6, -66, 57, -35, 61, -51, -2, -54, 58, 44, 95, 35, 20, 5, 12, 14, 27, -34, -2, 70, 73, 78, 72, -20, -67, -41, -86, 58, -2, -30, 95, -5, 75, 94, -11, 90, 42, 1, 63, 27, -3, -14, 29, 42, 23, -40, -32, 20, -9, 43, 72, -1, -56, 8, -20, -53, 81, -53, 70, 22, 27, -26, -49, 37, -52, -23, 64, -60, 48, 38, 53, -1, 69, 79, 82, 32, -84, 69, -59, -21, 49, -68, 32, -87, 32, -53, -38, -13, 100, -19, 42, -55, -77, 95, 76, 5, 53, 23, 15, 51, 12, -77, 80, 63, -64, 21, -72, 24, 16, -7, -39, -55, 74, 19, -59, -60, -26, -33, 14, -9, 75, 14, -84, -37, 12, -85, -4, 28, -42, 20, -12, -83, -47, 78, -13, -7, 38, -47, -41, 0, -7, 4, -39, -19, -35, -57, -26, -68, 27, 85, 30, -53, -35, 60, -11, -31, -3, -42, 7, -79, -1, 58, -12, 59, 52, -38, 91, -19, 9, 40, -30, 18, -56, 51, 56, -50, 19, 60, 85, 6, -72, 33, 72, 48, -2, -10, 31, 81, -72, 20, 17, 6, 86, -1, -22, -61, 48, -72, -28, 26, -27, -54, 32, 49, -97, 44, 45, 65, 8, -20, -21, 22, -43, 26, -83, 74, -81, -81, 35, -3, 8, 48, -43, -2, -19, 24, 21, 34, 4, 30, 82, 66, 10, 40, 68, 84, -43, -44, 23, 56, 59, 91, 84, 62, -38, -32, -49, 86, 18, -51, -73, 42, 43, 57, -51, 34, -29, -26, 31, 32, 58, 52, -65, -8, -62, -22, -91, -66, 44, 61, 18, 31, 13, 52, -12, 29, 60, -11, -53, -68, 12, -50, 43, -33, 84, -48, 20, 46, -35, 32, -28, 30, -21, 63, 28, 33, -79, -4, -3, 73, 12, -57, 11, -91, 49, -59, 32, 22, 50, 44, -60, 27, -53, 11, -68, 94, -34, -48, -25, 10, -5, -16, -92, -4, 69, 74, 12, 77, 80, -35, -11, 26, -22, -8, 46, -18, 45, 46, -62, -47, 20, -78, -43, -60, -85, -68, 21, 53, 65, -7, -88, 74, -33, -62, 41, 51, -98, -13, -25, -58, -39, -63, 73, 66, 29, -42, 30, -49, 31, 26, 76, -34, -3, -12, -55, -14, 68, 32, 35, 87, 0, -60, 23, -14, 16, 65, 69, -3, -34, 98, 13, -60, -64, 61, 55, -86, 39, -96, 72, 95, -73, -49, -61, 45, -55, 63, 7, -48, 44, -15, -30, 77, 40, 
  -79, -38, 3, 42, -18, -47, -76, -23, 6, 65, -61, 34, -62, 5, -12, 53, -73, -44, -47, -35, -39, -44, 51, -25, -27, 39, -32, -37, 40, 35, -25, 0, 2, 24, -10, 56, 78, -48, 14, -2, 34, -39, -34, -9, -57, 71, -39, 17, -43, 74, -36, -73, 9, -35, -10, 31, -77, -38, 39, -72, 54, -38, -39, -25, -6, -22, -15, 5, -57, 6, -41, -47, 23, 15, 37, 20, -8, -54, -48, -40, -32, -11, 35, -82, 37, 64, -66, 59, -16, 48, -29, -43, 1, 65, 27, -52, -16, -76, -4, -62, -66, 9, -46, 86, 22, -65, -7, 9, 23, -36, 63, 42, 48, -74, 36, -14, 58, -10, -90, 16, -30, 2, 22, 39, 24, -13, 35, 16, 34, 49, 76, -27, 9, 48, -72, -34, -70, 56, -60, -78, 53, 34, -63, -64, 65, -31, -44, -35, 46, -23, -49, 19, -20, -76, 52, 17, -79, -80, -32, -7, -25, 70, 24, -65, -62, -18, -59, 12, -15, 57, 51, -70, -19, 8, 52, -19, -45, -6, -54, 46, -52, -30, 33, -80, 8, -48, 59, 77, -68, 54, 25, -90, -66, 56, 35, 73, 77, 32, -16, -45, -61, -1, 51, -53, 50, 36, 74, -41, -90, 71, 23, 52, 17, 80, 65, 38, -31, 16, -16, -84, -1, -68, -65, -69, 22, -29, 45, -43, 11, 37, 10, 52, -3, -55, 37, -48, -48, 12, -40, -81, 35, -78, 80, 48, -75, -18, -75, -38, 36, 34, 10, -66, -4, 22, -46, -9, 39, 14, 34, -66, -74, -7, 61, 29, 51, 34, -15, -24, -3, 46, -75, 72, 74, 8, -38, -5, 78, -23, -9, -86, -32, 32, -70, 5, -38, -7, 47, 20, -54, -8, 63, 64, 30, -79, -55, 26, 16, 7, 83, 32, -90, 36, -25, 74, 11, -68, -50, 32, -42, 42, 52, 7, -15, -78, -2, 59, -5, -22, -71, -37, 54, -93, -11, -59, -25, 28, -64, 34, -67, 20, -5, 33, 46, -24, 59, 81, 49, 14, 66, -12, -38, 74, 31, -78, -9, 59, 18, -30, -71, 16, -70, -29, -15, -30, 41, -25, -53, 20, 2, 11, 4, -78, -26, 32, -77, 32, -5, 76, 47, 23, -12, -54, -38, 36, 83, -87, -24, 20, 2, -35, 57, 21, 12, 24, -29, -38, -47, 3, 24, -2, -22, 45, -27, -24, 44, -65, -6, -91, 78, -16, 71, -41, 20, -1, 41, -54, -10, 5, -15, -89, -7, 82, -2, -54, -37, -44, -24, 9, -65, -13, 71, 0, -48, 41, 14, 59, 77, 9, -63, 52, 27, 15, -39, 23, 7, 6, -48, -69, 3, -74, -4, 6, 3, -53, 0, -27, 41, -7, -7, 42, 27, -77, 22, 31, -60, -57, -57, -64, 75, -74, -18, 59, -25, -52, 45, -34, 33, 28, -68, 37, -68, -23, 67, -85, -25, -8, -56, 9, 71, -5, -88, -13, 4, -90, -62, 53, 31, 70, -23, 77, 48, -76, 42, -42, -60, 95, -2, 46, -9, 61, 58, -9, 83, -48, -79, 67, -20, 14, 38, -8, -8, -51, 53, -17, 23, 41, -74, 0, -49, 69, 27, 32, 35, 86, 38, -71, 64, -67, 5, 68, 91, 60, -42, 37, 30, 23, -12, -66, -2, -35, -29, 58, -52, 28, 65, 24, -21, 64, 40, 76, 55, 12, -19, -59, 61, 46, -41, 5, 7, -42, 33, -82, -30, 56, 8, 54, 7, 67, -11, -74, -77, 26, -74, -82, 19, 41, 60, -36, -36, -26, 15, -85, 68, 5, 42, -51, 62, 45, -3, 27, -34, -34, 36, 51, 72, 34, -79, 38, -71, -58, 25, 40, -49, 46, 61, -26, 33, -57, -45, 45, 76, 11, -15, -8, -16, 18, 53, -3, 8, 0, -54, 50, 5, -74, 17, 7, -80, 18, 37, 78, -49, -47, 9, 18, 59, 51, -54, 3, -62, 46, 
  -29, -71, -3, 63, 33, 90, -27, 44, -79, -26, 58, -13, 13, 65, 55, -28, 35, 33, -39, 78, 16, 53, 58, 53, -27, -14, 13, -22, 66, -42, 30, -23, 2, -27, 55, 51, 25, -25, 43, -38, -66, -30, 11, 24, -77, 39, 88, 22, 7, 39, 67, -37, 11, 25, -27, -32, -49, -35, 21, -60, -47, -43, 64, -20, 2, -48, -52, 71, -35, -59, 34, -28, 80, 16, 22, 7, 36, -52, 49, -21, 14, 62, 48, 82, 51, 80, 37, 48, 65, -60, -73, 70, 41, -80, 18, 29, 36, 9, -5, -35, 5, 79, 46, 33, 17, -37, 59, 81, 50, -22, -35, 65, 71, 46, -13, 7, 43, 81, -24, -72, -23, -17, -25, 81, 66, -62, -24, 26, -6, 68, 20, 3, -37, -20, -95, 22, -62, -73, 76, 5, 42, 49, -6, -62, 27, 64, -6, 36, 75, 23, 2, 36, 2, -24, -64, -7, 29, 45, -19, 86, 54, -50, 7, -21, 63, 21, -70, -60, -15, 32, 85, -45, -1, -61, -55, -51, 56, -25, -18, 53, -50, 43, 7, -43, -46, -8, 18, 74, -13, 56, -27, 36, -16, -16, -74, 55, -58, -63, 43, 4, -28, 2, 67, 66, -37, 60, -19, -52, -5, -25, -57, 33, -9, 29, -57, 56, 77, -23, -17, -60, 69, -78, 76, 82, -55, 15, -11, 19, 18, 58, 19, -89, 73, 22, -38, -26, 40, -8, -24, -18, -29, -69, 18, 68, 26, 38, 13, 6, -3, 45, -13, -78, 34, -28, -43, 41, -8, -81, 70, -14, -95, -69, -57, 50, -9, 74, 60, -63, 70, -5, -21, -59, -11, 61, 10, -4, 15, -72, -91, 55, -17, -38, -39, 33, -33, -22, -4, -54, -60, -58, -10, -50, -17, -33, 5, 0, 22, 71, -15, 39, -81, -82, -14, 11, 27, -17, -42, -83, -24, -7, -50, -17, 22, -45, -12, 20, -40, -38, 60, 73, 12, -63, -29, -61, 28, 54, 26, 42, -14, 13, 59, 24, 57, 15, -25, 39, -14, -20, -29, 18, -10, 25, -26, -35, -37, -1, -13, -56, 17, 19, 65, 39, -21, 8, -57, -3, -59, 95, 68, -96, -55, 33, -13, -1, 63, -64, -1, 30, 114, -56, 74, -54, -32, -53, 17, -55, -44, -35, -12, -25, 47, -43, -17, 32, -4, -23, 86, -78, 53, -72, -64, -8, 0, -63, 68, -61, -14, -75, 51, -69, 22, -35, 44, -3, 50, -40, 2, 75, -64, 31, 43, 71, 44, -21, 12, -12, 38, -8, -31, -32, 65, 35, 94, 23, -61, -61, 19, -3, 57, 71, 74, 67, -6, 74, -35, 58, 13, -53, -25, 54, 32, 71, -24, 58, 43, 57, 2, 5, 49, 78, 22, 0, -56, -45, -11, 26, 26, 38, -15, -21, 35, -9, 69, -80, -59, -51, 39, 28, 0, 39, -18, 18, 35, 51, -83, 6, -21, -44, -7, 42, 57, -33, 42, -42, -60, 36, 44, -32, -66, -46, -40, 15, -70, 80, 29, -75, 0, -77, -75, -9, 49, 55, 60, -34, -66, 26, 23, -53, 58, 62, 13, -94, 11, -55, 36, -26, 10, 65, -54, 3, -2, 67, 49, -10, 67, 43, -1, -84, 52, -14, -15, 75, -97, -57, -16, -13, -36, -43, 37, -52, -84, 28, -78, -20, 87, 78, -33, 8, -66, 43, -30, 0, 4, -35, 57, -80, -89, -35, 68, -15, -5, -1, -34, 10, 59, 73, -22, -26, -54, -27, 19, -15, 28, 62, 15, 34, 90, 1, -62, -61, -47, 83, -27, 84, 31, 69, 4, 45, 16, -33, -61, -53, -49, 77, -44, -49, 32, 66, 58, -82, 69, 8, -60, -23, -68, -65, -17, 39, 88, 61, 1, -91, 70, -4, -28, -23, 23, -62, -2, -6, 27, 13, 72, 7, -56, -73, -8, 66, 31, 95, -62, 95, -2, -33, 56, -70, -72, 87, -18, -76, 
  68, -68, -71, -60, 49, 73, -56, 5, 17, -50, -11, 90, -68, -37, -30, -63, -30, 47, 58, 80, 57, 41, 29, 73, -51, -10, 5, 58, -64, -35, -2, -78, 31, 12, 1, 84, -31, 14, -47, 60, 60, -18, 6, 72, 63, -17, -25, -21, -46, 20, -75, 37, -6, -45, -45, -9, 40, 48, -68, -4, -6, 36, 65, -9, 87, -66, 9, 10, 75, 88, -57, 22, 34, -8, 1, -64, -7, 49, 14, 67, 24, -22, 8, -60, -10, 28, 42, -44, -61, 27, 58, 1, 29, 18, -75, 81, -57, 64, -1, 39, 12, 12, 91, 74, -14, 15, -30, 81, 48, -12, 24, -29, 48, 90, 34, -19, 42, -35, 71, -34, 17, -55, 19, -53, 36, -1, 8, 20, 36, -67, -55, -42, -62, -52, 56, 39, -14, -52, -60, 89, -40, 18, 25, -20, 17, 11, 37, 63, 70, 90, 14, 22, -1, -48, -14, 3, -34, 89, 62, -49, -29, -41, 8, -81, -48, 78, -8, 21, 25, 37, 38, 63, -8, -67, -39, -13, -11, 4, -16, 33, 60, -9, 2, -12, -40, -36, -3, -57, -30, 65, 68, -75, -20, 41, 15, -61, -22, -39, -46, 83, 79, 20, -60, 21, -46, -35, -14, -20, -34, -15, 4, 25, 102, 87, -48, 86, 69, -54, -70, -5, -55, 53, 39, 46, 47, 1, 73, -42, 45, 70, 23, -13, 28, -35, 38, 51, 41, -70, -77, -29, 88, 60, -59, -35, 26, 55, 5, 57, -71, -22, -12, -71, -44, -14, 49, 16, 7, -8, -56, -50, 39, 42, -65, -33, -76, -85, -5, -5, 13, -14, -51, 19, 88, 8, -6, 66, 73, -6, 28, 67, 14, 23, 53, -35, -20, 62, 87, 84, -11, -66, -68, 25, -42, 18, -56, -6, 66, 61, 86, 44, 75, 36, 65, 11, -10, -13, 23, -49, -51, -35, -62, -74, -62, 30, -92, -80, 26, 19, 60, -26, 48, -48, -47, -13, 17, -66, 25, -1, 83, 24, -40, 80, 19, 37, 38, -75, 16, -70, 12, -30, -70, 48, -33, -60, -90, -74, -11, -28, 33, -7, 52, -56, -51, -50, 2, -88, -22, 78, -52, -20, 41, -69, -20, 22, -68, -35, 41, -6, 1, 10, 81, 45, 25, 0, -75, 32, 70, -81, -47, 49, -56, -27, -7, 28, 50, -3, 58, -25, 43, 8, -7, 44, 70, -72, 70, 26, -47, -32, 42, -57, 1, -34, -69, 23, -49, 38, -62, 30, 8, -45, 5, 52, -38, -9, -4, 6, -2, 49, 41, -69, -2, -15, -1, -40, -47, -57, 37, -32, -41, 34, 34, 10, 92, -38, -1, 56, 20, -66, -7, 44, -46, -19, -8, 61, 47, -35, -35, 7, 9, 26, 26, -45, 45, -70, -23, 79, -54, -59, 44, 50, -60, 32, 59, -13, -33, -65, -16, -53, 67, 24, 16, -79, 24, 24, -56, -55, -70, 35, -63, 85, 80, 58, 79, 26, -25, -48, 86, 53, -50, -11, 16, 15, 17, 16, -66, 60, -34, -44, -36, -33, 93, 45, -82, 73, 5, -58, -66, 4, 15, -45, 10, 27, -9, -20, -17, -50, -65, 42, -55, -34, -74, -52, -35, -38, -16, 72, 53, 33, 30, 65, 7, 85, 4, 39, 48, -48, 63, 15, 61, 72, 9, 3, 22, -8, -49, 11, -16, -54, 36, -14, 72, -43, 60, -73, -22, 79, 8, 7, -5, 25, -35, -67, 1, 23, 27, 76, 9, -72, -36, -37, -69, 75, -69, -67, -58, -68, 86, 15, -1, 87, 50, -64, -28, -1, -20, -5, -35, 80, -67, 75, 80, -66, 54, 48, 33, -65, 23, 63, 76, 15, -36, -27, 38, -17, 73, 59, -22, 80, -58, -68, 57, -44, 33, 25, -24, 40, -6, -22, -62, -53, -30, -30, -23, 22, 53, -18, 21, -18, -39, -66, -9, -6, -14, 65, -32, 67, -45, 38, 24, 57, 
  47, -71, 20, -72, -31, 0, -22, -28, -58, 15, 3, -40, -70, -40, -63, -22, -63, -36, 13, 55, -19, 22, -24, -6, -37, -61, -8, 51, -5, -33, -16, 4, 18, -54, -3, 29, 10, -7, 15, 9, 84, 14, 38, 49, 53, -82, -45, 101, -78, -79, 47, -54, -62, -9, -17, 36, 52, 54, -79, -22, -30, -27, -5, -70, -16, -66, 73, 62, -41, -31, -74, 77, 60, -34, 61, -52, 63, -49, -14, 0, 17, 74, -44, -17, 42, 1, -42, 65, 80, 38, 6, -19, 49, -4, 43, -25, -61, -36, -54, -64, 20, -45, 38, 58, -36, 67, 53, -42, -23, 8, 52, -51, -52, 51, 34, -11, 60, -26, 31, -47, -30, -40, 67, -15, -46, -74, -70, -79, 48, 7, -51, -33, 47, 76, 14, -11, 83, 15, 6, -49, 27, 61, -88, -9, 22, 68, 23, 73, 2, -35, -60, -20, 55, -63, -58, -42, 54, -40, 17, -40, -13, 10, 4, 45, 66, 16, -45, 34, -41, 3, 39, -26, 42, -25, -39, -31, -69, 62, -22, 25, 1, -44, 46, 14, -46, -19, 68, 7, 73, 10, 49, -19, -87, 64, 24, -52, 51, 57, 68, 73, 0, 35, 69, -19, 69, 39, -77, 66, 59, -50, -78, -30, -56, 55, -34, 36, -84, 23, -56, 31, 44, -2, -62, 30, -5, -23, 63, 67, -55, -53, 10, 66, -81, -30, -48, 27, 65, 88, 13, 39, 82, -27, -85, 75, -76, 3, -5, 42, 60, 73, -66, 72, -9, -24, -32, 41, -44, 71, 53, 10, 42, -63, 16, -66, 19, -64, 73, -60, 37, -13, 36, -21, 10, 64, -29, -4, -43, 42, 111, 47, 22, 16, 41, -68, -9, 19, 31, -10, -45, -2, 31, 9, -1, 69, -82, 56, 1, -36, 7, -28, -1, -12, 54, 20, -6, -68, -69, -11, 31, -2, -29, -29, 26, -32, 65, 31, 56, -5, 8, -53, -35, 41, 12, -68, 23, 28, -10, -58, 20, 17, -65, -66, -27, 14, 12, -10, 4, -54, 5, 95, 53, -30, 9, -44, -4, 70, 13, -70, 56, -31, -21, -37, -56, -22, 104, -16, 82, 60, -71, -44, 14, -75, -15, 63, 71, -57, -22, 41, 18, -20, 43, 8, 36, 26, -80, -64, 49, 7, -31, -30, 14, 29, -41, 42, 66, 12, -2, 86, -47, -22, 75, -83, 20, -69, -16, -43, 9, 77, 4, 58, 7, -10, -46, 42, -57, -50, -12, 24, -21, 41, -16, -50, -26, -72, 34, 30, -47, -9, 81, 16, -73, -67, 43, 4, -28, -34, -4, 55, -8, 70, -34, -43, 52, -65, -63, 72, -19, 1, 52, 99, -37, -36, 2, -4, -52, 83, 18, -81, 52, 52, 6, 60, -41, -58, 35, -92, -32, 80, 57, -53, -87, -17, 64, 63, 50, -2, -84, -52, -14, -79, -54, 13, 23, 80, -69, -38, 72, -69, 77, 28, 26, -6, 85, 53, 30, 2, -48, 29, 35, 12, 24, 83, -29, -14, -46, -23, -7, 46, 53, 85, 60, -22, -68, -55, -25, -54, -47, -50, -53, 76, 79, 85, 60, -48, 55, 17, -89, -25, 62, -39, 95, -64, -41, -42, -52, -37, 40, -60, 39, -24, -16, 18, 71, 14, -5, 33, -9, 20, 27, -40, -35, 28, 5, -1, 25, 5, 47, 67, -23, -87, 8, 5, 76, 53, -54, -20, 87, -22, 61, 4, -36, -63, -4, 40, 58, 43, -27, 68, -82, 34, -74, 43, 22, 62, -48, 62, 49, -29, 72, 22, -55, 43, 1, 40, 16, 14, -61, -95, 45, 5, 57, -22, 64, 6, 6, 26, -32, -76, 45, 18, 22, -70, 12, 69, 55, -58, 25, 102, -55, 36, -9, -12, 52, 35, 53, -33, -11, -46, -23, -4, 60, 9, 14, 24, 60, 12, 46, -77, 56, -92, 108, 1, 20, -75, -37, 57, -59, 6, 29, -3, 
  -48, 60, -42, -47, -12, -28, 66, -42, 44, -42, 35, -33, 50, -46, 11, 4, -97, -64, -64, -50, 22, 50, 46, -32, 38, -36, 19, 26, -79, -41, 2, 23, -30, 41, 2, -47, -23, -68, -85, 45, 78, -13, 95, -9, 40, -3, 66, -54, 67, -32, 22, -46, 9, 34, 45, -76, -64, 26, 35, -13, 83, -59, -55, -7, 45, -67, -58, 30, 0, -9, -59, 37, 58, -35, -79, 62, -2, -64, 31, 0, 76, -38, -50, 76, 19, -28, -67, -8, -12, -70, 90, -59, 61, -64, 25, 44, -21, -36, -46, 42, -19, -21, -49, -70, -68, -44, -48, -70, -7, 17, -70, -55, -69, -41, -10, -38, 64, -60, -36, -41, -44, 46, 19, 14, 20, -28, 21, 11, -3, 26, -29, 67, -49, 0, 7, 20, -55, 57, 70, 8, 47, 52, -75, 16, 51, 54, 38, -22, -31, 29, -30, 44, -44, -64, 4, -58, -25, -49, 6, -66, -61, -11, 53, -9, 62, -70, 77, -16, -47, 5, -58, 53, -34, 55, 52, -55, 71, 58, 62, 4, -68, 58, 7, -84, -12, -10, 28, -52, -77, 35, 45, 71, -72, -31, 76, 7, -17, 5, -37, 38, -73, 29, -60, -70, 39, 35, -3, -80, -13, 65, -48, -4, -101, 12, 18, 8, 28, 19, 11, -54, 22, 74, 4, 13, -85, 68, 71, 23, 66, 10, 27, -16, -4, 3, 2, 79, -10, -7, 40, 34, -65, -39, 43, 57, -16, 72, 3, -20, 88, -40, 14, 77, -42, -82, -21, -82, -67, -22, 59, 38, 46, 30, 98, 75, -23, 52, -2, 50, 12, 21, 63, -64, -36, -43, -39, -46, 58, -63, 72, -33, 52, -40, 14, 49, 34, 45, -83, -43, -73, -44, 64, -21, 4, -59, 61, -35, -88, 25, -80, 72, -44, -20, -29, 35, -20, -58, -2, -18, -32, 57, 21, 80, 105, 68, 82, 9, 69, -24, 1, -29, 39, 19, -63, -46, 78, 58, -27, 30, -57, 13, -77, 38, 0, -58, 10, -72, -45, 17, 54, 55, 14, 73, -27, -34, 9, 55, -41, 44, 32, -76, -36, 9, -54, 36, 43, -18, -25, -12, -73, 105, -53, 3, 23, -2, 48, -61, 35, -77, 32, 19, -86, 98, -12, 76, -27, -47, 79, 1, -30, -5, -7, 43, 36, -84, -80, -7, 36, 101, 47, -47, 33, 30, -76, 82, -69, -50, -38, 10, 21, 51, -81, 17, 11, 66, 18, -33, 10, 73, -64, 65, -25, 47, -22, 23, 24, 26, -27, -55, -55, -20, 63, 72, -94, 32, -109, -44, 1, 30, -16, -48, -22, 15, 72, -49, -49, -38, 78, 60, 32, -51, 103, -93, -49, -35, 46, 11, 29, -15, -71, 78, -61, 30, -77, 65, -42, -48, -2, 30, 72, 54, 29, 3, 37, -69, -69, 42, -17, 57, 17, 51, -41, -13, 34, 98, 80, 89, 87, -70, 12, 22, -32, -17, 38, 57, -31, -17, 20, -22, 25, 0, -65, 28, 23, 41, -41, -92, 75, 36, 56, 35, -6, -46, 35, 44, 11, -59, 50, -53, 1, -5, 32, -27, 66, 20, 28, -72, 22, -22, 62, -66, -41, -60, 43, -87, -27, -68, 67, 58, -64, -9, -75, -67, -7, 10, -48, 71, -25, 21, 3, -67, 16, -78, -4, 56, 71, 18, 6, -6, 69, -11, -26, 5, -2, -13, -49, 66, 86, 49, 29, 89, -69, 82, 75, -20, -30, -10, -33, 41, -13, 83, 84, 67, -58, -2, 37, -44, 22, -66, -28, -53, -58, 68, 72, -88, 93, -81, -75, -67, 7, 38, 7, 28, 13, 38, -101, 87, -68, 38, -67, -61, 29, -51, 52, 0, -40, 62, -28, 61, 24, -17, 51, -60, 18, 64, -42, 7, 53, 67, -38, -71, 54, 6, 3, 81, -17, -54, 47, 44, 33, -47, 2, -55, 54, -78, -9, -48, 42, 43, 16, 75, 
  -42, -67, -18, -10, 80, 11, 29, 26, 51, 27, -65, -53, -55, -59, -15, -10, 84, 7, 67, 6, 47, 2, 63, -50, -52, 41, -44, -49, 76, 30, -39, 0, 54, 87, 61, -55, -57, 24, 61, 17, 72, -2, 38, 1, -59, -14, 1, -57, 11, -25, 33, 19, 13, 86, -2, 44, -7, 35, 82, -19, 36, -18, -68, -42, 94, 41, -41, -61, 26, 53, -23, 34, 87, -8, 22, 82, -64, -55, 75, -2, 34, 88, 14, -23, 35, 11, 24, -73, -48, -32, 23, -6, 35, -17, 57, -75, -39, -93, -76, 25, -15, -52, -53, -51, -10, 23, 43, 78, 50, -83, 37, -14, 26, 74, 75, 45, 8, 71, -48, 56, 0, 77, 42, 18, 3, -19, -18, 37, -18, -17, 30, 31, -37, -65, 34, 74, 30, -72, -57, 77, 57, -77, 93, -37, -52, -54, -12, 40, 4, 85, -48, 62, 81, -38, -26, -59, 3, -7, 24, -10, -37, 3, -22, 61, 75, -18, -75, -20, 87, 52, -51, 66, 39, 60, -74, -45, 1, -49, -12, -19, -68, 63, 87, -26, -67, 35, 50, 73, -30, 17, -47, -70, -2, -80, -20, 67, -61, -18, -24, 22, -34, 55, -37, 77, -2, 15, 54, 95, 101, 71, 37, -10, 89, -26, -77, -20, 6, 56, -61, 60, 10, 36, -24, -42, -14, -63, -82, 51, -67, -62, 71, 51, 55, 61, -24, -2, -63, -66, -81, -14, 27, 64, -40, 37, -27, 62, 52, -1, -55, 28, 44, 42, -28, -26, -35, -19, 39, -74, -40, -56, -55, 6, 32, 13, -61, -28, 56, 42, 8, -38, 37, -70, 48, -68, -48, -72, -33, -43, -6, 34, -51, -77, 51, 50, 83, 4, 65, 91, 27, 72, -34, -49, 6, -49, 11, -9, 48, -17, 45, -44, -7, -50, 23, -11, 14, 16, -30, -16, 3, 44, 57, 66, 25, 31, -95, 2, -11, 43, -16, -13, 23, -27, 81, -32, -14, 31, -36, 12, 70, 39, 13, 0, 27, 13, -37, 66, 45, -53, -6, -73, 2, -14, -24, -37, 3, 5, -36, -47, -24, -22, 72, -65, -41, -53, -91, -61, 18, -37, 69, 17, 5, -45, 81, 52, 54, 63, 24, -3, -1, 45, 5, -6, 57, -96, 48, -16, -3, -76, -56, -60, -41, 0, -39, -50, -80, 35, 91, 15, 49, 52, 68, -9, 11, -51, -63, -58, 38, 43, -29, 27, 0, -8, -47, 63, -29, -92, 28, 25, -33, 22, -31, 78, 57, 55, 20, 18, 85, -50, -47, -64, -25, -37, -27, -10, 83, 75, 58, -27, -76, -1, 37, 53, -50, -45, 20, 53, -60, -15, 49, -40, -14, -73, 64, 65, 14, -3, -51, -46, -76, -33, -49, 27, 18, -60, 23, 38, 55, 26, 39, 34, -33, -4, -56, -47, 19, -36, -6, 20, -12, 25, 49, 33, -74, -86, 9, -61, 8, -47, -39, -12, 70, -68, -92, 27, -3, 44, 8, -72, 74, 29, 78, -31, -53, 80, -43, 80, -23, -19, -60, 35, 66, -26, -15, -9, 33, -62, -14, 48, 73, -99, -12, 39, -40, -51, -43, 50, 31, 19, -59, 8, -37, 36, -31, 48, 8, -38, 71, -21, -4, -65, -26, 21, -2, 3, 15, 55, -69, 61, 71, -14, -25, 7, 21, 71, 69, -37, 73, -2, 18, -4, -39, 65, -57, -39, -71, -72, -10, -2, 95, -1, 57, -14, 5, -23, 48, 68, -59, -68, -31, 50, -29, -22, 17, -35, 49, 39, 91, -5, -65, 40, 57, -34, 64, 18, -54, 41, 52, 66, 23, 0, 24, -81, 70, 10, 39, -12, 70, -32, -51, 54, -91, -67, -72, 34, 44, -57, -65, 29, -35, -53, -40, -57, 27, -21, 56, -60, 42, 63, 35, 13, -26, 42, -30, 40, 55, 70, 32, -76, -10, 97, -91, -15, 59, -14, 2, -47, 5, 59, -1, -8, 
  51, -56, -12, -13, -48, -75, 63, -42, 37, 23, -39, 65, 48, -87, 71, 97, -39, -72, -52, 7, -52, 31, 29, -48, 41, -48, 41, 46, 32, 75, 55, 19, 38, 70, 74, 25, -13, 18, -30, -67, 10, -70, 32, 16, 62, -23, -3, 41, -13, -53, -64, -11, 0, -24, 44, -79, 72, -12, -39, -47, 46, -27, 61, -31, -54, 17, 77, 71, 8, 42, -19, 57, -22, 52, -55, 44, -18, 47, -52, 42, 65, -36, 3, -29, -25, 66, -10, -32, 24, 51, 77, 33, 35, 39, -42, 58, -39, 65, -8, -77, -75, -29, -20, 46, -35, 31, 25, 15, 22, 19, 65, 66, -54, 12, -27, -46, -54, -13, -54, -56, -23, 60, 47, -29, -38, -47, -39, 8, -9, 27, 46, -71, 4, -66, 43, -18, -65, -16, -25, -24, -72, -2, 64, 34, -36, -51, -82, -24, 73, 63, 2, -76, 27, -3, 9, -64, 75, 4, 64, 50, 70, 26, 28, 70, 69, -86, 6, -34, -37, 61, 48, -63, 52, 76, 6, 14, -8, 31, 28, -29, 69, 36, -63, -61, 63, -60, 70, -72, -39, 31, 55, -37, -26, -42, 92, 5, 82, 29, -42, 55, -53, 35, 34, 79, 68, -31, -60, -55, -13, 69, 51, -60, -63, -54, 67, -65, 34, 68, -6, 79, -58, 64, 16, 65, -61, 38, -49, -33, -64, 84, 58, 29, -39, -55, -6, 56, -11, -32, 9, 68, -30, -60, 57, -20, 13, 19, -82, -16, 1, 6, 18, -57, 58, -50, -75, -76, 73, -45, 61, -31, 49, -40, -17, -1, 44, -59, -58, -35, -32, 25, -29, -24, -30, -28, 55, 42, 2, 87, -7, 69, 66, 48, 93, -53, -71, -6, -29, 46, 10, 24, 104, 52, 11, -20, -8, 107, 0, -7, 64, 59, 32, 50, -7, -75, -43, -57, -29, -53, -41, 59, -15, -63, 43, 9, 80, 74, -81, -25, -40, 45, -23, 57, -76, -58, 11, 80, -17, -62, -39, 72, -15, 74, -22, 42, 54, -77, -43, 19, -8, 40, -43, -33, -56, 21, -56, 68, 63, -15, 73, -85, -81, 32, 65, 63, 87, -8, 55, 67, 36, 100, -84, -17, -26, 42, 60, -6, 48, -16, 31, 47, -28, 53, 40, 77, -30, 31, 38, -71, 40, 79, -30, 14, -38, -52, -6, -14, -26, 24, -65, -64, 28, -100, -9, -9, -41, -5, -15, -57, -24, -19, 14, -71, -86, 47, -47, 74, 45, -36, -62, -70, -48, -16, -33, -40, 55, 60, -26, -81, -39, 55, -45, -77, -52, 94, 39, -38, -38, -49, 67, -5, -16, 6, 43, -60, 30, 32, 43, -31, -8, -41, 19, -39, -56, -63, -24, 16, 5, -42, 29, 40, 26, 46, 42, -39, 34, -51, 9, -7, -44, -75, -2, -44, 74, 62, 37, -45, 22, 43, -54, 12, 78, -27, -53, -56, 31, 19, -38, 13, 1, 45, 45, -32, 69, 10, -31, -9, 22, -43, -11, 75, -42, 29, 22, 11, -63, 49, 75, -35, 39, -58, 35, 26, 52, 16, -58, 20, -42, -71, 85, 29, 81, -1, 31, -73, 60, -33, -26, -19, 25, -21, -9, -14, 12, -32, 36, 41, 30, -12, 38, -61, -29, -61, 33, 51, -51, 60, -54, 10, 58, 37, 79, 32, -27, -30, 52, 70, 43, 33, -67, -85, -77, -83, -34, -21, 55, 38, -22, -38, 69, -50, 67, -72, 78, 52, 15, -18, 53, -67, -68, 43, -18, -35, -64, 32, 75, -16, -73, -3, -59, -18, -89, -78, -49, 29, 33, 24, -57, -15, -66, 30, 40, -7, -41, 33, -93, 12, 52, -54, 27, 81, 2, 47, -9, 88, 61, -66, 44, -7, -35, -17, 26, -11, -17, 2, 65, -75, -3, 50, -43, 20, -31, -15, 5, 56, 18, 80, -23, 78, 33, -2, 96, -58, 63, -7, 24, 75, 26, 76, 64, -39, 
  -54, 44, 59, -10, 80, 28, 9, 67, -76, 39, 89, 47, 78, 1, 50, 0, -11, 78, 0, -34, 67, -70, -21, -45, -54, -39, 26, -60, -64, 33, -20, 38, 60, -65, 62, 91, -31, -47, 57, 1, 63, -3, -2, -28, -28, 28, -11, -75, -22, 41, -64, 67, 28, -38, -65, 98, -29, 23, -45, 63, 4, 48, -72, 33, -9, 35, -64, 56, -39, 25, 69, 41, 50, 56, -19, -11, 36, 15, -2, 13, 36, 18, 71, 24, 8, 89, 69, -62, -72, 71, -17, -40, -57, 0, 64, 52, -55, -73, -83, 40, -61, -55, 40, -41, -7, -30, 91, -62, -70, -5, -49, -55, 12, -19, -51, 60, -68, -50, 77, 61, 45, -80, 66, 8, 20, -27, -60, -36, 23, -49, 55, 16, 71, -7, 17, -6, -49, 62, -21, 22, 34, -15, 80, -11, -36, 25, 84, 92, 17, 79, -14, 89, -37, -2, -24, -13, 89, -63, 64, 68, -14, 22, 28, -41, -67, -57, -35, 11, 29, -27, 15, -26, -1, 48, 83, 46, -26, 84, -20, -27, -46, -40, 8, -70, 8, -9, -29, 21, -50, 13, 57, -46, -41, -69, -64, -42, 66, 50, -88, -72, -24, -29, 21, -58, -57, 68, 45, -46, -13, 33, 57, -58, 0, 90, 59, 6, 69, 1, 38, 47, 27, -13, 73, 43, 51, 15, 0, -50, -77, 2, 9, -33, 67, -19, 54, 15, 21, -18, 57, 14, 19, 64, 47, -65, 52, 61, 19, -51, 12, 42, 75, 42, 83, -3, 101, -13, -51, -80, -68, 38, -85, -3, -79, -8, 39, 43, 21, -56, 47, -72, 85, 14, 25, 6, -47, -14, 18, 0, -82, -13, 69, 6, 37, 25, 85, -54, 45, 97, 65, -42, -78, 11, -65, -10, 84, -77, 11, 72, 6, -93, -25, -37, 46, 70, 57, -33, 82, -18, 5, -38, 57, -82, -40, 3, -95, -24, -41, -43, -20, -32, 57, -4, -11, -9, 14, 76, 29, -4, -60, -72, -13, 75, -76, 75, 67, 67, 45, 77, 60, -54, 0, -17, -28, -15, 20, -10, -16, -17, 90, -5, -20, 21, -65, -24, 25, -39, 51, 93, 96, -38, 63, 34, -41, -29, 35, 5, 27, -32, 58, 78, 96, 19, -62, 59, 5, 9, -10, 49, 61, 43, -60, -68, 34, -7, 35, 7, -58, 22, 32, -11, -4, -35, -32, -67, -57, -53, 74, -8, -52, 7, -35, 10, -27, -65, -73, 2, 13, -60, -18, 55, -7, -35, -44, -51, 52, -23, -48, -68, 43, -70, 2, -43, 96, -15, -48, -47, 39, -75, 64, 68, 61, -48, 92, 3, 42, -4, -30, -56, -57, -88, -45, -41, 49, 47, 84, 31, -45, 33, -73, -65, 76, -20, -42, -88, 48, 15, -30, 10, 49, -41, 21, -78, 18, 61, -32, 58, 4, 8, -77, -42, -3, 62, -85, -53, 24, -30, 2, 16, -42, -29, 3, 83, -58, -55, -65, -15, -45, -41, -41, 6, 50, -56, -25, -46, 55, 41, 76, 52, -18, 11, -35, 35, 83, 37, -72, 52, 16, 84, 31, -6, 11, 67, -25, 81, -40, -38, -33, 39, 73, 105, -51, -83, -26, -48, 38, 89, 44, 60, -19, 27, -14, 49, -77, 37, -62, 79, -66, -24, 6, -84, -4, -54, -29, 31, 39, 48, 66, 56, 23, -4, -44, 49, 36, 65, 60, -54, -9, 83, -52, 32, 3, 32, -48, -20, 14, 98, 45, -64, 28, 62, -25, 25, -90, -55, -51, -48, 46, 57, -22, 67, -4, -75, 63, 26, 50, 61, -39, -11, 59, 0, -66, -81, -30, -12, 76, 62, -72, 49, 9, -23, -27, -1, -18, 34, -16, -22, 62, -54, -59, 64, 92, -54, 75, -25, 81, -50, -82, -32, 0, 25, 27, -11, -34, 60, -58, 8, -93, 19, 28, -9, 0, -47, -18, -14, -17, 7, -21, -25, 7, 29, 
  -11, 66, -13, -43, -56, -57, -50, -29, -25, 34, 28, -85, 1, 7, -63, -10, 17, 62, -55, 15, -72, 31, 43, -30, 79, 21, -3, 55, -68, 16, 25, -20, -72, 24, 22, -31, -9, 16, -85, 50, 45, 75, 35, 2, 29, 66, 50, 9, 58, -83, 3, 43, 10, 29, 16, -3, 32, 37, 72, 25, -12, 52, 21, -10, -84, -40, 17, -1, 18, 60, 90, -41, -15, -69, 3, -41, -48, -70, -48, 76, -73, -75, 53, -25, -69, 31, -17, 43, -62, -9, -44, -12, 29, -47, -43, -50, 76, 60, 71, 12, -39, -76, -37, 68, 41, 38, -51, 6, -37, -42, -49, -47, -69, -16, 52, 49, -50, 37, 72, -56, 4, 67, 86, -13, 47, 34, 5, 59, 22, 35, 83, -26, 18, 77, 31, 29, -74, -13, -51, 0, -15, 77, -43, -62, 0, 20, -67, 41, 30, -58, 50, -76, -18, 14, -14, 35, -66, 35, -45, -24, 15, 51, 44, 49, -24, -44, 62, 37, 17, 27, 51, -36, 74, 80, 39, 76, -10, -28, 32, -61, 3, 16, -84, 28, 6, -25, -20, 18, -73, -25, -75, 8, 53, 41, 12, 59, 28, -2, 16, 30, 65, 27, 4, -2, 38, 86, -59, 53, 53, 6, -81, 76, -27, -66, 22, -69, -69, -62, 14, 63, -37, 62, -58, -4, 38, 72, 27, 38, 57, -26, -38, 28, -41, -46, 28, -10, -24, -4, -6, 25, -59, 64, 0, -68, 69, 34, 22, 12, 27, 60, 15, 24, -92, -39, -80, -99, -30, -62, -62, 56, 75, -42, 22, 2, -4, 22, -31, 22, -26, -72, 27, -65, 4, -70, -58, 69, 70, -48, 72, 48, 19, -49, 40, 63, -74, -14, -22, 38, -72, -26, 67, -63, 36, -15, 74, 89, -8, -5, -71, 94, 59, 58, -54, 27, -72, -1, -9, 62, -21, -45, 53, 28, 55, -75, -58, 26, -84, -32, 17, -70, -61, 9, -20, 83, 87, 13, 63, -43, -65, 16, -19, 58, 79, -29, -61, -54, -55, -27, 57, -10, -68, 42, -11, -22, -31, 66, -11, 17, 12, 16, 46, 66, 8, -67, 19, 43, -13, -25, -49, 105, -6, 7, -52, 20, -69, -22, -63, -83, -38, -51, -73, -34, -21, 37, -33, 11, 11, -9, -11, 5, -26, 24, -39, -21, -24, 0, -58, 52, 68, -56, 90, -55, -63, 29, 22, 39, -61, 4, 16, -18, 15, -25, 13, -59, -27, 79, -50, 47, 9, 66, 38, 0, -51, -14, 65, -4, -24, 24, 3, -22, 32, 58, 33, -37, -27, -38, 0, 46, -26, -1, 0, 56, -63, 24, -40, 24, -65, 58, 6, 88, 69, -79, 54, 14, -63, -38, -32, 13, 16, -74, -86, 79, 18, 7, 0, -103, -29, -7, 32, -63, -21, -58, 57, 14, -22, -53, -39, -42, -40, -29, -29, -66, 76, 87, -19, 57, -22, -71, 4, -85, 15, 50, 15, -11, -50, -36, 39, -54, -89, 26, -89, 82, 78, -6, -17, -80, 33, 11, 63, 51, 44, -46, 19, -31, 72, -45, 40, -10, 11, 45, -53, -50, -74, -41, 5, 28, 57, -63, -23, -97, -33, -44, -26, -87, -44, 6, 85, -60, -36, -81, 18, -69, 0, 17, 13, -3, 53, 48, 72, -49, -56, 43, -5, -56, 46, -15, -32, -44, 20, -50, 15, -79, -12, 9, -60, -42, -25, 16, 15, 19, -58, 12, 69, 41, -58, 60, 95, 2, -39, 81, 2, -29, 37, -2, -4, 83, 72, -73, -5, -17, -19, -66, -20, 58, -56, -76, 71, 38, 17, 4, 5, 83, 15, 52, -25, -38, 25, -39, 49, -67, 63, 30, 5, 18, -22, 72, 74, 18, 34, -29, -44, -50, 56, -66, -87, 52, -33, 49, -75, -86, -15, 51, 59, -7, 42, 83, -56, -68, 22, -12, 84, 36, 22, -65, -37, -76, 74, 17, 40, 37, 
  21, -13, 82, -52, -51, 54, -13, -27, 63, -16, -69, 80, 87, -64, 65, 46, 98, -64, -39, 74, 55, 53, 72, 59, 37, 37, 69, 26, -28, 47, 52, -9, 60, 37, -44, 58, 33, -47, 12, 106, 3, 55, 50, 79, 68, 91, 24, -30, 71, 93, 70, -33, 43, 36, -11, 43, 44, 55, -69, -48, 50, -42, -38, 60, -23, -57, -23, -8, 59, -58, -36, 52, -55, 75, -18, 49, -3, 46, 24, -74, 17, 18, -52, -31, -13, 55, 50, -6, 27, -38, -82, -69, 41, 54, 10, 60, 62, -28, 22, -54, -39, 28, -2, -49, 23, -62, 6, 85, -66, 24, 0, -45, -31, -58, 73, -42, 46, 35, -10, 34, 17, 11, 6, 29, -5, 54, 9, -57, -22, -50, 63, -16, -31, 27, -68, 41, -69, -49, 69, 12, -39, -44, 78, 41, -3, -18, -58, 40, -46, -2, -60, 20, 76, -62, 40, -42, 34, 18, -25, 19, -15, -54, -39, -43, -38, -44, -45, 26, -27, -56, -33, -68, 64, -67, -16, 93, 8, 33, 90, -14, 7, 53, -13, 69, 46, 69, 17, 9, 92, -29, 73, 70, 84, -2, -11, -17, -25, 52, 25, 15, 35, -81, 4, 5, 0, 67, 22, -26, 46, 46, -71, 15, -17, -41, -78, 80, 84, -63, 59, 50, -59, 46, -68, 24, 78, 26, -48, 28, -86, 29, -2, 21, -30, 71, 27, 64, -13, 24, 39, 70, -6, -43, 69, 62, 48, -76, -48, -4, -72, -24, -57, -18, 48, -12, -49, 74, 66, 24, 4, 18, 20, 43, 34, 15, -18, -79, 9, 25, 21, 4, 49, 0, 34, 60, -12, 12, -44, -30, -4, 85, -48, -34, 65, 48, 85, 41, 71, 26, -64, -32, -80, -11, 68, 5, 30, -81, -61, -39, -59, -11, -13, 44, 43, 16, -24, 12, -27, -78, -24, -63, -57, -75, 3, -64, 11, 3, -26, 71, 73, 61, -58, 57, -58, -74, -29, 9, -78, 62, 50, 37, -78, 29, 55, 53, 39, 75, 20, 19, -56, -39, 29, 7, -71, -6, 42, -37, 29, 71, 10, -20, -1, -79, -34, -69, 35, -8, -47, 20, -30, -93, -86, -75, -11, -54, -22, -47, 26, -23, 36, -21, -55, 62, 73, -55, -57, -12, -67, 7, -26, 21, -3, -103, -42, -70, 52, -40, 74, 57, -46, 6, 11, 61, -32, -81, -45, 4, 43, 26, 40, -82, -26, 32, 13, 35, 33, -25, 60, -17, -54, -37, -11, -57, 55, -2, -8, -34, 70, -64, 0, 50, -9, -3, 93, -16, 27, 37, -26, -35, -62, -12, -17, 72, -57, -8, -15, 30, 24, -39, -7, -4, 24, -82, -65, -19, 70, 15, -39, 19, -57, 10, 33, -20, -41, -37, -21, 70, -89, 8, -42, 91, -56, -18, -42, 25, 21, -79, -23, -34, -13, -21, -41, -6, 21, -33, -25, 44, -35, -68, -33, -78, 42, -49, -64, 7, -35, 41, -13, -50, 56, -33, 54, 1, -3, 39, 87, -63, -69, -6, -21, 27, 79, 38, 59, 72, -60, 70, -43, -6, -56, -21, -26, 16, 70, 82, 56, -80, -60, 56, -25, 45, 50, -59, -28, -22, -39, 79, 62, 7, -63, 56, -39, 58, -52, 2, 46, -35, -77, 31, 63, -28, -40, -20, 22, 9, -52, -8, 75, 12, 83, -70, -1, -10, 37, 47, -26, 0, -45, -29, 10, -68, -1, -66, -73, 62, 78, 87, -53, -1, -35, -53, -54, 60, -59, -38, -17, -90, 72, -49, -31, 6, 87, -25, 70, 44, 54, -62, -73, 84, -59, -28, -46, 38, 52, 15, 42, 78, 4, 62, -76, 21, 25, -67, 53, -46, 29, -57, -50, -30, -17, 27, 41, -52, -23, 2, 6, 1, -87, -4, -38, 8, -76, 64, 43, -35, -17, -7, -21, 60, -78, -24, -44, -1, 9, 67, -68, 30, -7, -27, -7, -7, 
  -66, 8, 33, -79, 9, 74, 55, 53, -9, -22, 19, -43, 4, -2, 76, 0, 18, -14, -62, 31, -14, 23, -3, -62, 38, 24, -74, -17, 16, -80, 63, -50, -4, -21, -48, -80, 22, -85, -62, 10, -16, -19, 6, 19, -25, 50, 46, -43, -7, -74, 79, 66, -24, 40, -20, 6, -5, 6, -58, -73, -26, 10, 94, -23, -25, -17, 73, -40, 10, 49, 57, 36, -18, -11, 76, -35, 53, 33, 29, -60, 5, 69, 48, 28, -95, 65, 66, 71, -51, 22, 15, -27, 1, 40, -54, 85, 55, 56, 42, -18, 25, -56, -6, 59, 15, -9, 67, -56, -79, -62, 74, -21, 0, 2, -54, 55, -25, -47, -40, -19, -26, 1, -5, -32, 8, -58, -69, -64, -18, -41, 1, -51, -11, -65, -8, -13, -24, -82, -43, -58, -28, -14, -38, 57, -76, 52, -51, -15, 34, -22, 75, -14, -83, -87, 53, -51, 75, 50, 54, -20, 30, -24, -18, 36, 64, -5, -71, -68, 2, -6, -4, 35, 15, 56, -22, 44, -46, 59, 19, -52, 26, 19, 3, 70, 25, -10, 27, -74, -38, -25, -61, 3, -48, 13, 42, -39, -36, -56, 55, 90, 66, 18, 50, 88, 25, -38, 56, 3, 36, 7, -23, -9, -13, 39, 96, -51, -50, -8, 78, -74, 36, -21, 26, 26, -6, -40, 19, -49, -22, 3, 31, -29, 0, 62, 10, -27, -72, -41, -19, 80, -64, 22, -61, -14, 78, 10, 16, 51, 3, 27, 8, -43, 33, 58, -52, 35, -69, -24, -40, -4, 49, 72, 43, 55, 47, 57, 16, 13, -16, -28, 49, 36, 22, 30, 68, 55, -50, 38, 21, -65, -28, 65, 31, 35, 0, 12, 28, -90, 53, 58, -18, -18, 51, -7, 8, -44, 8, -9, -52, 40, -17, 87, 80, 1, -58, -50, 11, 97, 78, 103, -49, -40, 81, -54, 17, 39, 13, 86, -34, -88, 81, -42, 65, -46, 34, -37, 34, -85, 30, -37, 33, -54, 45, 70, -31, 29, -3, -30, 8, -40, 34, 59, 45, 45, -22, -15, 60, 27, -47, 3, 25, 77, -88, -31, 81, 14, 43, -32, 22, -45, 88, -55, -32, 12, 12, -5, -75, -46, 26, 40, -38, 41, 47, 20, -10, 16, -3, -18, 52, -21, 59, -17, -82, -41, 20, -4, -62, -56, -17, 64, -29, -7, -54, 59, 45, -73, -59, -75, -15, 35, 42, -75, 11, -47, -15, 63, -42, 31, 25, 69, 66, 39, -8, -10, 16, -65, 49, -48, 63, -44, -33, 9, 3, 53, -15, -71, -1, 74, -36, 8, -52, 45, -91, -25, -13, 40, -11, -67, -44, 88, 25, -64, 71, 64, 16, 67, -48, 13, -72, -71, -72, 3, -31, -22, -51, -94, -5, -25, 20, -38, 7, -37, 82, 36, 61, -37, -50, 31, 72, -44, -25, -70, 12, 50, -40, 3, 7, 36, 81, 68, -71, -61, -57, 5, -75, -79, -5, 15, 25, 16, -29, 75, 42, -23, -81, 38, 33, 37, 43, 43, 31, -57, -78, -8, 83, -45, -77, 64, 57, -4, -48, -13, -12, 50, -91, -45, 31, -16, 10, 53, -2, 77, -2, -95, 3, 30, 58, -45, -55, 13, -53, 11, 32, 46, -20, -50, -43, 81, 7, 65, -61, 46, -7, -71, -30, -88, -16, -23, 26, -2, -64, 62, -36, -14, -68, 29, 50, 55, -39, -21, 11, -35, -14, 17, 1, 28, -16, 43, 56, -16, 12, -46, -16, 24, -50, -25, 70, -75, 46, 12, -13, 9, -18, 6, -13, 59, -52, -10, 7, -25, -54, -16, -19, -39, 55, -26, 31, 47, -76, -47, 7, -27, -46, 25, 54, 58, 63, 21, 11, -23, -22, 73, -17, -16, 63, -6, 32, 62, 15, 21, 72, -61, -27, 33, -28, 82, -50, 15, 72, -52, -1, -46, 19, -18, -60, 13, 26, 39, -14, 3, 
  43, -2, -83, -5, 68, -75, -20, 15, 57, -3, 13, 37, 61, -63, 42, 19, -2, -82, -31, -63, -10, -70, -48, -78, -33, 9, -61, 64, -5, -10, -41, 61, -66, -57, -91, 35, 31, 3, -78, -100, -22, 47, -16, -22, 66, 35, -73, -70, 29, -6, 14, 9, 36, 62, -29, -19, -59, -1, 61, -25, 48, 30, -73, 12, -80, -39, -76, -51, 43, -52, -77, 57, -73, 47, -41, 35, -66, -36, 54, 11, 23, 44, 18, 30, -15, 60, 56, -46, -13, -52, -27, 15, -76, 68, 26, -5, 0, 34, 59, -27, -23, 21, 38, 55, 41, -42, -15, -12, -80, -12, -43, -42, 33, 61, 28, -38, -23, 26, 21, 72, 28, 65, -35, -80, 64, -91, 55, -25, 62, -62, -57, -13, 54, 11, -45, 35, 48, -3, 52, 24, 37, -43, 5, 24, 36, -41, 5, 12, -91, -62, 44, 47, 57, 75, 57, 39, -12, -13, -24, 61, 21, 35, -65, 45, 15, -12, -63, 15, 42, 29, 70, -13, 38, -69, 29, -18, -12, 12, -35, -16, -51, 37, -49, -35, 18, -74, -73, 24, -14, -73, 36, 2, -66, -61, -50, 66, 12, -19, 6, -6, 62, 41, -43, -67, 46, -65, -20, -6, -54, -11, -66, -61, -51, 14, 77, -46, 19, -69, -45, -83, -65, -68, 14, 25, -3, 50, 11, -58, -21, 55, 11, 11, -24, 46, -76, 37, 44, -22, 17, -18, -25, 13, -65, -8, -18, 25, -50, 31, -7, -73, -62, 2, -38, -75, -60, 37, -53, -21, 23, 1, -25, -16, 51, -55, -76, -53, -76, 64, -41, -72, 72, 47, 47, -84, -25, 72, 42, -11, 40, 39, 27, -42, -49, -16, 61, -65, 10, 51, 70, 46, -25, 78, 75, 56, -15, -41, -83, -22, -20, -37, 22, -9, -21, 35, 7, -62, -19, -9, -15, 39, -41, 7, 17, -37, 4, -31, 26, 39, -83, -44, 8, -9, 56, -74, 64, 39, -81, 16, -53, 30, -69, -50, -26, 33, -21, -76, 65, 76, 66, -54, -15, 39, 39, 59, -65, -13, 19, 48, 51, -33, -86, 26, 0, -68, 37, 50, 10, -65, -73, 29, -31, 26, 19, 4, 23, 27, -8, 0, 75, -81, 27, -78, 59, -47, 46, -65, 46, -12, -64, -22, 67, 30, -13, -10, 4, 60, 1, 21, -37, 53, -16, -48, 78, 77, -19, 15, -52, -75, 51, -23, -30, -43, 49, -75, 65, -28, -28, -42, -62, -77, 47, -65, 46, -24, -14, 4, 8, -55, -43, -32, 51, -41, 70, -78, 58, -39, 58, 58, -20, -71, -1, -69, -72, -16, -30, 24, -15, -49, -58, -41, -24, 52, 53, -82, 50, 22, -35, 71, -42, -73, -14, 54, 4, -31, -44, -29, 55, -69, -70, 11, 10, 23, 50, -47, 48, 12, 47, -51, -80, -49, 65, -44, 76, 54, 15, -76, 51, -4, -72, 65, -15, -37, -29, -2, 54, 24, 16, 51, -21, 15, -81, -42, 69, 5, -15, -53, -74, -2, 28, -40, -52, -16, -63, -73, 23, 27, 78, 69, 21, -2, 52, -3, -1, 36, -30, 7, 45, -56, -55, -12, 28, 72, 62, 13, 29, -70, 30, 38, 33, 13, 36, 37, -52, -6, -61, 22, 26, 28, -20, -47, -60, -54, -45, 70, 63, 72, -61, -78, 44, -52, 10, -84, 17, 17, -43, -71, 42, 43, -17, 31, 31, -12, -2, 77, -36, -76, 18, -60, 24, 76, -27, -21, -4, -55, 65, -61, 72, -63, 63, -53, 66, 71, -17, -48, -47, -41, 18, -80, 0, -2, -64, 64, -53, -36, -53, 36, -14, -67, -28, 39, -32, 0, -17, -19, 30, -25, 18, 61, -6, 35, -14, -5, -3, 48, 28, 25, -63, -60, 26, 61, 12, -17, 44, -20, 18, 70, -76, 38, -66, -67, -85, 22, 63, 24, -12, 64, -31, -34, 12, -25, 
  -48, 71, -34, -65, -47, 32, 8, -18, -83, 64, -75, 17, -41, 10, 37, 63, -79, -7, -59, -35, 15, -52, -30, -58, 8, -47, -27, 47, 43, -37, 39, 28, -8, 16, 60, -57, -36, -41, -71, 66, 38, 8, 27, 38, -47, -49, 20, -21, 58, -62, -73, 69, -37, -18, -14, -22, -9, 62, 47, -32, -33, -33, -80, 72, 74, -33, -27, -30, -50, -83, -6, -44, 22, 59, -61, -57, -19, 50, 36, -59, -22, -64, -16, 78, -37, 1, -58, -70, -21, 33, 26, 57, 6, 37, 30, 11, 64, 59, -8, 14, 14, -74, 57, -51, 74, 79, -20, -22, -27, -9, -20, -53, 13, -6, -49, -42, 4, -77, -66, -55, 0, 24, 29, 51, 28, 58, 2, -59, 8, -25, 12, 57, 4, 31, -25, 54, -47, -63, 0, 73, -23, 45, 26, -26, 41, -17, 3, 64, -32, -75, 73, 45, -68, -70, 17, 6, -58, -42, -60, -3, -65, -51, -6, 29, -60, 51, -41, -19, -62, -51, -74, -46, -32, -40, -49, 3, 76, -64, 48, 78, 23, -74, 75, -25, 17, 74, -4, 26, 48, -19, 70, 39, 7, -3, 30, -19, -62, -62, -60, 63, 63, -22, 71, -73, -72, 2, -6, 0, 38, -80, -81, 65, 48, -51, 49, -11, 58, -79, 16, 11, 49, -24, -79, -24, 3, -38, 51, -35, -22, 62, -20, 8, 52, 60, 62, 54, 25, 30, 70, -4, -25, -46, -13, -9, 59, 29, 6, -14, -30, -28, 6, -82, -49, 37, -76, 78, -38, 23, 23, -71, 6, 41, 7, -20, 21, -38, -63, -7, -64, 52, 73, 42, -18, 6, 66, -82, 67, -23, -5, -36, -73, 28, 29, 52, -56, -81, 17, 32, -33, -21, 7, -25, 44, -41, -28, -44, 44, -61, 1, 12, -27, -50, -28, -54, -42, 12, -55, -43, -76, 56, -53, -46, -74, -40, 31, 55, 31, -68, 11, -14, 52, 52, -24, -70, 55, 29, -47, -43, 36, -66, -35, 47, 55, 30, 32, -46, -13, 0, 64, -67, 4, 51, -45, -76, -57, 6, -27, 68, 22, -35, 76, 79, 23, 27, 18, 44, -65, -79, -55, -71, -69, -76, 77, -16, 57, 42, 12, 73, -60, 41, -52, 20, -35, 58, -52, -12, 4, 42, -61, 5, -35, -34, 41, -1, -2, 23, -10, -73, -60, -13, -20, 65, -41, -69, 72, -49, -73, 38, -18, 44, 41, -59, 46, 49, -3, -37, -77, -31, -63, -72, 53, 43, 57, 65, -51, -1, -73, -47, -69, -58, 65, -59, 60, 46, -6, -33, -44, 37, 15, -38, -11, 64, 29, -54, 44, -37, -50, -76, 40, 47, -83, 43, 25, 31, -13, -11, 65, -43, -35, -84, -10, 48, -25, 54, -3, 74, 19, 0, 49, 23, 20, 41, 69, 62, 7, -48, 1, -18, 52, 75, 80, 42, 49, -52, 65, 54, -14, -78, -38, -80, 70, 76, 65, -36, 38, 28, -31, -73, -1, -9, -12, 56, 40, -22, -4, -36, 44, -70, 42, 44, -23, -32, -13, -63, -25, 72, -61, 62, -53, -44, -83, 32, -51, 39, -43, 68, -26, 55, -54, -80, -1, -68, -62, 57, 63, -57, -3, 58, -57, 38, 59, 36, -32, -66, 33, 70, 79, 11, -72, 3, 25, -34, 71, 70, 21, 68, 78, -33, -76, -57, -43, -46, 78, -4, -58, -8, 64, -57, 37, 63, 25, -41, 14, 18, 34, -72, 9, -23, -31, -36, 60, 65, 52, -8, -79, 10, -17, 23, -67, -73, -49, 42, 53, -70, 30, 35, -8, -44, -4, -22, -66, 72, -9, -64, -82, 9, -14, 59, -33, -37, 49, 31, -49, -63, -37, 42, 35, -13, 62, 72, -16, -81, -81, -83, -31, 81, -51, 11, 15, -44, -28, 26, 49, 68, -55, 36, 75, 59, -40, -41, 36, -21, -62, -24, -68, -10, 18, -50, -49, -76, 
  26, 12, 39, -53, -52, 43, -42, 39, 42, -37, 68, -22, -11, -77, 61, -4, 19, -30, 31, -55, 78, 2, 33, -46, -16, 36, 70, 35, 1, -75, -3, -3, -5, -59, 31, 28, -8, 16, -16, -8, -66, -44, 85, -9, -12, -17, 10, 11, -51, -2, 95, -50, -32, -27, 81, -38, 67, 37, 53, -18, 87, 95, 90, -24, -53, 62, 57, -72, -80, 23, -65, -60, 68, 64, 34, -26, 5, 40, -4, 22, 26, 11, 66, 44, 16, 50, -22, -66, -52, 55, 47, 32, 42, -12, 47, 81, 65, 53, -2, 31, 50, 42, -11, 72, 67, -36, -59, -50, 87, 49, 71, 60, 53, 30, -35, -8, 42, 2, 26, -52, 13, -58, -20, 20, 36, 38, 81, -56, 74, -1, 44, 43, 61, 49, -55, 72, -43, -44, 46, 6, 25, -33, -36, -24, -27, 10, -64, -28, 52, -78, 39, 63, -21, -14, -25, -54, -53, 36, 51, 20, 8, -57, 32, 63, -35, -30, -19, -44, 1, -66, -57, -45, -10, 79, 82, 14, -81, -35, -27, -7, 62, -47, -1, -9, 71, 35, 61, 59, 35, 53, -75, -21, 0, 9, 43, -23, -65, 13, 97, -31, -63, -55, 52, 30, -64, -9, -70, 8, -28, 69, 59, 8, 7, -24, 51, 29, 69, -45, -45, 43, 11, -70, -57, 58, -36, 36, 27, -10, -16, 7, 71, -54, -2, -81, 22, -63, 25, -61, 18, 78, 21, -62, 1, -65, 81, -22, -3, -68, 82, 0, 54, -46, -62, -32, -44, -10, 4, 90, -61, 42, 106, 84, 71, 41, -76, -13, -46, -62, 46, -41, 46, -86, 21, 67, 37, 39, 16, -36, -1, -16, -54, -51, -64, -51, -5, -80, -64, -39, 21, -53, 101, -50, -25, 10, -12, -36, -19, -39, 47, -44, -65, 34, 87, -25, -92, 68, -29, 2, -37, 59, 19, 3, -28, -58, 7, -31, -74, -60, -33, 32, 74, -49, -74, 34, 52, -54, 41, -40, -82, -40, -36, 56, 59, 73, -45, 11, -72, 74, 65, 77, -3, -32, 76, 0, -52, 82, -34, 40, 65, -66, 81, 43, 51, 66, -22, 0, 67, -66, -86, 90, -1, -6, -45, -31, -60, -2, 6, -2, -75, -55, -55, -50, 15, -25, 59, -30, 70, -30, 60, -47, -59, 53, -25, -25, -56, -34, -70, 18, -1, -52, 18, -59, 15, 14, 0, -35, -13, 48, 53, -60, 5, -38, -36, 60, 44, 13, -32, 38, 28, 34, 71, -38, 52, -15, -54, -53, -62, 40, 19, 69, 62, 23, -82, -11, -11, 28, -91, 51, -20, 79, 36, -58, -82, -70, 74, -40, 3, 8, 56, 21, 68, -58, 59, 15, -63, 2, 40, -11, 26, 11, -65, -45, -5, 79, 10, -98, 59, -50, -18, -60, -10, 18, 57, -57, -48, 66, -16, -49, -49, 23, -43, -74, 88, -18, -38, 65, -17, 14, 6, -31, 38, -53, -35, -27, -71, -37, 15, 90, 17, 92, 40, 67, 27, -34, 2, 43, -7, 14, -11, -8, 62, -33, 30, -12, -60, -47, 47, -3, 80, 16, 79, 39, 60, 52, -68, -35, -77, -46, -46, -61, -9, 66, -17, 61, 21, 60, 8, 55, -33, 32, 53, -36, 23, -10, -68, 14, 26, -26, -54, 74, 89, 15, 50, -21, 51, -8, 48, 48, -33, 0, -81, -29, -21, 84, 40, -53, 98, 16, 28, -46, 25, -57, 81, 73, 73, -56, 60, -74, 71, -66, 62, -69, 2, 52, 42, 38, -77, 41, -67, -61, -94, -19, -48, 65, 9, 68, -78, 49, 58, -35, 33, 48, 57, -13, 22, -58, 2, 1, -18, -40, 17, -4, -52, -17, 22, -69, 24, -34, 31, -58, -55, 73, -20, 76, -49, 37, 60, -34, -69, -16, 44, -25, -14, -66, -65, 57, 93, -71, -10, 20, -48, -24, 57, 38, -48, 19, -5, -6, 95, -33, 
  -74, 56, -26, -59, 8, 69, 38, -63, 36, 76, -13, 26, 32, -62, 1, -96, 75, -4, -17, -51, 54, 59, -25, 56, 63, -56, -46, 29, -48, -28, -8, 24, 56, -67, -36, 95, 72, 62, -52, 58, 80, -76, -33, -69, 62, 68, 39, -31, 45, 55, -51, 6, -37, 76, -21, 57, 26, 68, 41, -61, 32, 64, -42, 20, -54, -8, 30, 13, 34, -7, 36, -26, 67, -30, 22, 56, -19, -21, 16, 44, -3, -10, 13, 68, -47, -9, 63, 17, -49, 25, 63, 65, 49, 65, -71, 14, 77, -71, -84, -42, -37, 80, -2, 4, 60, 5, 43, -33, 42, -38, 61, 18, 16, 13, 18, -45, 25, 72, 5, -55, 70, -80, 0, -40, -64, 70, 41, -50, 60, 65, -24, 65, -11, -13, 40, -33, 0, -17, 56, 1, 72, 23, -24, -19, 63, 34, 3, -80, 72, 2, 17, 37, -48, -30, 23, 8, -40, -13, -77, 76, -16, -10, -81, 40, -4, 55, 20, 37, -3, -49, 94, -76, 49, 28, -42, 52, 47, 75, 31, -25, 68, -57, 23, -41, 75, -3, -44, 42, 1, 5, 70, 11, -25, -90, -65, 59, -24, -72, 3, 6, -68, -68, 33, -51, -31, -50, 32, 2, 38, -16, -27, 9, 46, -27, -76, 37, 84, -53, -7, 3, 75, 71, -31, -14, 15, -23, -39, 51, -9, 4, -62, 61, 87, 82, 43, -28, 4, 54, 51, -81, 9, -20, 94, -45, -78, 40, -57, 19, 10, -64, -38, -14, -16, -24, -14, 20, 20, 4, 21, -55, -96, -67, -24, -47, 31, -68, -10, -41, -45, -61, 44, -51, 89, -34, -9, 34, -43, -13, 39, -16, -10, -3, -62, -79, -18, 28, -28, -45, -5, -56, -102, -10, 3, -34, 40, -28, 59, -11, -42, 37, 9, 52, 43, 12, 44, -100, 84, 42, -34, -59, 7, -11, 5, 69, -85, -65, 65, -55, -30, 43, 25, 63, 63, -91, 1, -58, -81, 25, 7, -69, -41, -54, -54, -10, -30, -12, -2, 31, 60, -56, 41, -83, -34, -12, -13, -35, -74, 58, 0, 96, -25, 8, 13, 9, -65, -17, 77, 2, 39, 3, -4, 10, 39, -90, 62, 29, 35, -68, 35, 43, -63, 54, 66, -90, 39, -26, -85, 74, -30, -35, 42, 24, 30, 79, 62, -66, 72, 49, 75, -71, -23, 19, -65, 61, -16, -33, 73, -35, 43, -33, 70, 61, 75, 56, 2, -9, -26, -44, -64, 55, 63, 39, 28, -9, 53, 32, -45, -18, -24, -70, 71, 58, 64, -20, 77, 62, 60, -60, -62, 45, -16, -36, 29, -44, 30, 2, 63, -18, -21, 48, -81, 22, 16, -16, 66, -81, 49, -6, -28, 60, 27, -46, 7, -1, 20, 81, -32, -23, 6, 93, -23, -67, -39, -5, 43, 45, -1, -22, 1, 47, 7, 20, -11, 62, -68, 11, -45, 48, -26, 92, -28, 7, -15, -94, -12, -39, -45, -8, 25, 12, -61, -42, -33, 0, 82, -21, 62, 17, 43, 41, 19, -67, -59, -40, 39, 47, 3, 14, 68, -41, 29, 52, -71, 4, -5, 16, 20, -47, 33, -8, -93, 11, -49, -7, -59, 54, 33, -2, 76, -63, -18, -25, -90, -30, 81, -51, 16, 15, -38, 10, -60, 72, -76, 21, -27, 57, -10, -62, 55, -44, 84, 12, 0, 67, -73, 2, 28, 105, 52, 54, -9, 28, -40, 45, 79, 6, 56, 87, -13, -30, -25, 36, 64, -19, -91, -34, 32, 22, 58, -52, 26, -3, 62, -6, -49, -8, 0, -37, -46, -7, 41, -23, -91, 61, 74, -26, -44, -8, 27, -30, 41, 57, 72, 53, 14, 41, 0, -72, -36, -33, -38, -58, 70, 13, 38, 70, -58, 46, 11, 70, 62, 56, 5, 54, 55, -38, 49, 16, -52, -37, 29, 74, -11, 33, -54, -15, -80, -58, 32, 29, 
  -13, -50, -63, -27, 46, -60, -86, 55, 13, 18, 35, -9, 10, -71, -84, -80, -7, -60, -34, 75, -72, -8, 55, 59, -15, -23, 2, -79, 20, -46, -24, 52, 31, 63, 38, 18, -53, 60, -26, 39, -73, -82, 21, -21, 56, -43, -21, 16, -83, 53, 47, -65, 17, 61, -9, 45, 57, 11, 45, 5, 10, -46, 31, -70, 35, -42, 75, 49, -81, -52, -72, 19, 5, 22, -73, 1, 41, 31, -53, -56, -59, -64, 58, 61, 13, -3, -13, 49, 64, -10, -68, 21, 15, 5, 16, -36, 3, -82, -25, -3, -24, 41, 11, -19, 28, 36, -79, 64, -33, -69, 13, -20, 77, 8, 67, -82, -18, 66, -89, -59, 33, 61, -38, 47, 6, 66, 27, 1, -2, -14, -4, 45, 35, -80, -61, -40, -24, 66, -27, 27, 49, 23, 49, -85, 51, -47, 4, -62, 6, 55, -66, 70, -46, 0, -3, 17, 2, -80, -6, 34, -70, -54, 68, 10, 70, 67, 23, 9, -43, 66, 19, -83, -63, -28, -35, -84, 17, 37, -51, 35, -12, -84, -14, 34, -47, -81, -66, 6, 22, -16, -87, 19, -12, -21, 5, -66, 65, 33, 16, -59, 52, -22, -66, -21, 41, -45, -42, -62, -47, -56, 52, -23, 16, 25, 3, -19, -46, 40, -28, 5, 34, -71, 33, -42, -18, 16, -58, -35, -80, -66, 56, -77, -45, -46, -20, 0, 15, 69, -61, -82, -16, -57, 51, -36, -19, -3, -61, 33, -59, 75, -18, -59, -74, 47, -6, -58, 26, -50, -11, 37, -18, -36, -12, -23, 32, -57, 3, -64, -71, -54, -71, 2, 69, -60, 45, 11, 31, -60, 0, -21, -6, 17, -11, -3, 65, 60, -66, 47, -69, 64, -73, -22, -15, 24, 38, 65, -66, 3, -43, -52, -65, -68, 24, -2, -42, 57, -37, -58, -78, 1, -32, 17, -74, 42, -29, 0, -53, 26, 52, -51, -59, -28, 10, 54, 76, -58, 25, 60, 47, 21, -13, -43, -38, -40, -74, 12, 23, -5, -29, 16, -27, -79, 13, 65, 41, -78, 59, -13, 27, -1, -43, -77, -71, 18, 25, -77, 62, 31, 10, 76, 29, 37, 1, -61, 62, 10, -2, -50, 37, -32, 30, -45, 16, 47, -72, -37, 30, 23, -63, -46, -16, -30, -11, 60, -8, -65, -19, -79, -20, -38, -20, -63, -76, -39, -11, 9, 56, 0, -55, 26, -19, 63, -64, -40, 40, 4, 42, -30, -68, -48, 44, 44, 30, 44, 38, 81, -83, 53, 38, 47, -59, -74, 35, 32, -58, -57, -8, 46, -27, -11, 68, -63, -74, 42, 43, -48, 34, 16, 36, -22, -26, -9, -78, -31, 35, -8, -61, 27, 60, 42, -53, 47, -73, 74, -44, 60, 42, -45, -54, 58, 31, 1, -62, -77, -12, 35, 58, 54, -44, 34, 26, 20, 53, -59, -83, -47, -74, -72, 76, -68, -85, -65, -18, 37, 28, -14, -47, 63, 45, 22, -84, -68, 50, 35, -13, -34, 15, -1, -43, -69, 0, -85, 74, -38, 3, -20, -62, -17, 64, 50, -9, 32, 33, -38, -9, 22, -22, -77, 27, 0, -45, 42, -53, 23, 55, -29, 43, -79, 51, 67, -7, -19, -12, 67, -41, -22, -48, -21, 35, 44, 62, 55, 78, 59, 1, -76, -73, 74, 45, 23, -28, -80, -1, 49, 11, 16, -29, -17, -38, 62, 78, -51, 77, -37, 38, 14, -45, 17, -72, 31, -46, -25, 55, -81, -7, -25, -75, 67, -29, -76, -5, -76, -9, -85, 76, 5, -10, -25, 21, 49, 25, -45, -37, -36, -8, 20, 4, -44, 8, 79, -22, -84, -35, 50, -6, 8, -63, -9, -23, -24, 7, 69, 19, -47, -72, 64, 2, 17, -62, 38, 22, 36, 46, 59, -21, -15, 16, -5, -78, 34, -25, -69, 71, -32, -40, 6, 62, -77, 73, 56, 
  -81, 83, -34, 10, 81, 43, 49, 65, -14, 94, 41, 82, -56, 87, -43, -80, -32, 20, 29, 5, -22, -34, -11, 73, 6, 51, 78, 52, 75, 59, 69, -59, -39, 69, -9, 84, 42, 83, -50, 69, 59, -79, -47, -72, 8, -61, -37, 1, 60, -27, -68, 0, 82, 52, -36, 57, 0, 35, -28, 66, 13, 13, -35, 49, 63, 57, -6, 32, -52, -14, -11, 51, 5, 26, -39, -8, 51, 11, 19, -38, -17, 32, 17, 56, -46, 84, 40, 15, -20, 102, -69, -60, 31, 43, 20, -32, 25, -16, -46, -64, 73, 34, 76, 54, 74, 55, -60, -45, 10, 48, -64, -75, -43, 49, -12, 35, 68, -2, 13, -12, -72, -22, 89, 47, -23, -61, -3, 78, 4, -46, -47, 21, -52, 56, -84, 47, -46, 19, -32, 52, 5, 2, 58, 88, 83, -43, -66, 32, 37, 52, -10, -30, -9, -58, -6, -23, 43, -44, -9, 66, -8, 1, 14, -45, -27, 44, -27, 55, 71, 35, -26, -20, 21, -2, -8, 92, -18, 76, 89, 41, -48, 82, -29, -53, 21, -80, 15, 7, 38, -30, 27, -26, -24, 66, -22, -77, -56, 46, 21, 64, 50, -59, 78, -48, -50, -17, 37, 66, -52, -43, -27, 74, 19, -45, -88, 0, 30, -48, -13, -33, 50, 23, -66, 11, 31, -68, 23, 14, -24, -83, -31, 37, -40, 101, -8, -33, 36, -37, -25, 36, -40, 82, 101, -72, 13, 29, 11, 77, 29, -4, 28, -40, 44, 73, -13, 34, -11, -93, -29, -53, -57, -25, 62, -14, 37, -54, 41, -29, -26, 69, 12, 31, 0, -37, 33, -17, -61, -66, -122, -22, 16, -20, -42, 58, -17, 48, 54, 3, 61, -57, -67, 46, -33, -56, 79, -21, 82, -4, 51, -2, 33, -90, -97, 1, -9, 40, -41, 23, 2, 0, 19, -81, -65, -27, 35, -47, 52, -59, -4, -18, -5, -26, -37, -17, -27, -27, -49, -6, 48, -54, 49, 34, -12, 75, -83, -68, 13, -23, 5, -74, -8, -24, -13, -16, 57, -27, 13, -77, -4, -49, -22, 72, -58, 64, 8, -73, 53, 51, -18, -44, 42, -27, -10, 16, 15, 75, 64, 76, -27, 3, 36, -6, 13, -9, 90, 44, -18, -58, -55, 49, 71, -103, 4, 16, -60, -66, 42, 3, -83, 66, 2, 54, 42, -61, 70, 7, -22, -54, -34, -66, -1, 63, -25, -21, 69, 32, 50, -40, -69, 54, -80, -13, 14, 21, 9, 48, 41, 82, 48, -38, 23, 30, 84, -99, 60, -70, 22, -35, -69, 8, 79, 61, 80, -7, 55, 19, 14, -53, 62, -80, 51, 65, 61, 43, 32, -47, 0, 20, -47, 34, 66, 55, 22, -5, -15, -10, -26, -17, 54, 59, -34, 56, 57, -68, 16, -49, 91, -36, -2, 8, -67, 70, 60, -33, -11, -2, 42, 16, 23, -4, 25, 33, -52, -76, 42, -22, 40, -51, 78, 32, -3, 64, -38, 43, 61, -44, -36, -32, -53, -41, 37, -56, 2, -46, 2, 86, -42, -47, 76, 39, -68, 40, -26, 8, -20, 22, 36, 2, -25, 30, -49, -68, 46, -27, 0, -34, 65, 44, 31, 61, -32, -55, 29, 59, 11, 27, -47, -50, 41, -52, 19, -71, -60, 45, 68, -28, 46, 2, -9, 68, 115, 4, 1, -50, -47, -26, 51, -10, 83, -70, 19, 12, -78, 8, 59, -61, 41, 50, -2, 21, 39, 59, 46, -50, -89, 15, -23, 9, -13, -72, -43, -10, 82, -7, -23, 13, 35, 42, -59, -28, 11, -26, -45, 15, 82, -43, -58, 72, -43, 37, 61, 82, 37, 59, -34, 35, 18, 34, -15, -47, 64, -3, -34, -61, 95, 57, 3, -26, -50, 15, -9, 3, 104, -18, 68, 53, -37, 39, -42, 70, 8, -41, 53, 62, 45, 82, -42, -39, 44, 42, 
  -37, -11, 14, 54, 12, -26, 49, 68, 50, 18, 40, -58, -50, 24, 41, 72, -80, 48, 47, -76, -31, 44, 64, -78, 65, 0, -11, -3, -38, 59, 7, 17, -85, 2, -45, 45, 72, -34, -29, -40, -70, -68, 49, 17, -31, -4, -27, 59, -26, 40, 26, -28, -75, -58, -16, 30, -37, 51, -5, -21, 6, 35, 31, 15, -7, 30, -6, -51, -11, -61, 21, 32, -4, 60, 37, -18, 21, 19, 18, -10, 9, 76, 83, 20, -64, -69, 55, -5, -37, -27, -35, -32, 71, -29, 76, 48, -47, 80, 84, 40, 12, -73, -26, 43, 65, 19, -53, 14, 57, 20, -30, -44, -47, -26, -12, -60, 3, 20, 31, 17, 43, 59, 47, -13, -69, -68, 64, 66, -52, -15, 15, -59, 69, -48, -14, -57, -28, 38, -41, 58, 36, -59, 28, -29, 3, -20, 2, -48, -46, 31, -25, -34, 46, -3, 6, 28, 39, -58, -56, 74, -65, 35, 78, 31, 55, -88, -44, -70, 24, -71, -51, -15, 48, 76, 62, 34, -81, -47, -30, -71, -54, -51, -34, -58, 72, -69, 6, -42, 81, 5, 9, -45, -69, 90, -35, 73, 74, 2, 86, -25, -68, 58, -54, 59, 13, -59, -43, -19, -83, 14, 60, -48, -30, 17, -26, 1, -35, 53, -67, -71, 79, -19, -51, -35, -64, 6, -20, -28, -33, -70, 40, 75, -14, -50, -60, -55, 64, 28, 84, 24, 34, -63, 9, 15, 31, 38, 68, 23, -9, 33, 8, -29, -66, -69, -30, -78, 47, 98, 86, 109, 102, 39, -17, -27, 14, 47, -76, 73, 1, -35, 34, 20, -20, -63, 38, 9, -75, -53, 44, 23, -69, -11, -42, -57, -35, -13, -52, 20, -17, 14, 34, 82, 66, -21, 26, 77, 10, -51, 77, -4, 34, 87, 60, -18, 8, -7, -56, 72, 84, -16, -50, -5, -5, 11, 45, 115, -29, -56, 30, -79, -27, -59, -9, 76, 5, 96, 30, 36, 42, -44, -62, 46, -51, 67, -14, 36, 33, 27, -34, 92, 23, 22, 26, 37, -38, -19, 35, -56, -57, 49, 7, -34, 38, 20, -16, 74, 50, 21, 28, 62, 19, -15, -43, 79, -40, -67, 84, -21, 6, 11, -51, 64, -79, 40, -102, 63, 71, -72, 71, -39, 0, 32, -5, 15, 3, -46, 0, 5, 79, 26, -9, -56, -1, 90, -35, -78, -43, 65, 24, -2, 25, -58, 10, -4, -60, -1, 22, -48, -63, -22, 69, -10, -83, 32, -62, -69, 25, -47, 58, 16, -49, 34, -68, -30, -76, -33, -15, 15, -19, -36, 61, -58, -33, 32, -84, -21, 30, 77, -19, -45, 0, -65, -42, 55, 8, -17, 41, 69, -25, 27, -53, 39, -38, 70, 84, -80, 20, 36, -64, -43, -26, -16, -49, 27, 36, -26, 29, -19, 74, 34, -37, 82, 16, 20, -20, 55, 27, -7, 47, -19, -31, 63, 73, 25, 73, -69, 32, 67, 3, -56, -26, 8, 47, 44, 18, 69, 77, 0, -4, 43, -13, 77, 21, -9, -62, -15, -55, -29, -26, 32, 38, 103, -81, -85, -91, 43, -57, 74, -33, -60, 24, 59, 85, -89, -77, -82, 66, 12, 50, -20, -45, 73, -17, 34, 21, -1, -6, -51, 9, -63, 85, 23, 17, 75, -14, 5, 30, -19, 16, -18, 37, -52, 24, 41, 63, -64, 68, 55, -78, 8, -12, 36, -36, 38, -17, -5, 41, -81, 32, -34, -16, -21, -63, 51, 15, 121, 0, 47, 60, -16, -32, -3, -77, -64, -10, -36, 67, 54, -50, -18, 99, 60, 30, -42, -98, 25, 69, 37, 65, 26, -28, 64, -41, -36, -46, -37, 4, 83, -3, 76, -23, 63, 54, -22, -72, -37, 87, 26, 74, -13, -16, 33, -98, -31, -9, -61, 32, 17, 10, 6, 24, -52, 43, -69, -16, -19, 80, 67, 88, 99, 
  59, 41, 89, -37, -8, -57, 74, -61, -6, 89, 90, 96, -30, 98, -27, -1, -7, 33, 25, 81, 30, 7, 49, -36, -17, 13, -61, 26, -12, 19, -11, -59, 49, 17, 4, 71, -57, 44, 99, -23, 52, -41, -71, -49, 47, 42, 48, -43, -2, -21, 40, 38, 100, 65, 68, 88, 44, 2, -58, -38, -17, 18, -3, -33, 88, -56, -17, 86, -33, 48, 49, -38, -73, 49, 23, 41, -50, 53, -56, -30, 21, -60, -35, 31, 37, 93, -48, -52, 12, 7, -56, 102, -39, 72, 63, -68, 83, -89, -36, 31, -69, 20, 61, -51, 21, -44, 61, 21, -73, -56, -15, -8, 28, -21, -30, -25, -26, 33, 50, 59, 19, -4, 64, 51, 24, 10, 70, -3, 29, 2, 3, 70, -5, -51, -32, 3, -73, -24, 63, 58, 75, -34, 92, 105, -59, 5, 72, -16, 72, 41, -6, -16, 96, -21, -31, 58, 80, -8, -55, 13, -61, 26, -18, 48, 4, 9, 82, 89, 65, -23, 76, 72, 30, 58, -9, 11, -57, -42, -10, 45, 93, -59, 64, -44, 66, 32, 67, 42, -39, 43, 12, -68, -46, 5, 32, 24, -40, -39, 10, -6, -9, -45, -47, -54, 25, 22, 27, 17, 103, 70, -56, -53, 26, -18, 48, 31, 44, 58, -53, -56, -34, 62, -36, 9, 15, 43, 28, 14, 41, -50, -49, 71, 11, 106, -22, -21, 70, -87, -60, 22, -37, -39, 93, -49, 27, -50, 30, 40, 7, 79, -18, -3, 6, 31, -40, 22, -36, 22, 65, -28, -68, 43, -62, -11, 17, -16, 46, 32, 4, -46, 77, 108, 16, -76, 36, -24, -48, -63, -10, 11, -22, -86, -62, -26, 61, 96, 91, 79, 34, -1, -35, 17, 43, -78, -19, -48, 68, -15, 99, -54, 25, -38, -47, -18, -2, -10, 97, -53, -17, -63, -18, -3, -65, 84, -76, -94, 29, 42, 26, 41, -51, 5, 12, -33, -31, 65, 31, -24, 83, -45, -30, 0, 5, 91, 46, 56, -40, 63, 88, 27, -73, 39, -96, 106, -41, -45, 62, -15, -58, 41, 83, 52, 48, -55, -59, -56, -63, 81, -27, -55, 45, -61, 57, 36, 61, 23, 23, 46, 78, -49, -31, -55, 100, 8, 7, 49, -86, -33, -55, -55, -53, 17, 70, -26, -40, 56, -22, -55, -22, -44, 13, 108, 1, 16, -21, 97, -41, -14, -26, 54, -53, -57, -10, 4, 25, -48, -59, -52, 17, -35, -73, 46, 61, -46, -25, 98, 57, 14, -45, 45, 68, 11, 4, -10, -10, 28, 36, -78, 64, 78, 73, 101, 65, -72, 96, 20, -69, -31, 31, 76, -49, 36, 17, 50, -60, 51, -19, -22, -18, -56, -36, -59, 50, 20, 69, 54, -64, -40, -70, -15, -10, -1, -39, -4, -53, 65, 21, 59, -100, 72, 44, -62, 41, -75, -48, 36, -67, 91, 49, -17, 89, 33, -45, -18, 50, 18, 5, -4, 47, -81, 47, 32, -10, 65, -34, -66, 76, 64, 48, 50, -7, -63, -44, -3, -97, 74, -32, 6, 53, -38, -77, 56, 29, -14, 51, -81, -35, -1, 42, 3, -77, -77, -3, 96, 57, -62, -20, -36, 66, 74, -35, 91, 56, -71, 32, 61, 47, -26, -78, 51, -48, 91, 5, 7, -22, -53, -6, -81, 100, 63, 82, 27, 13, -60, -20, 29, 22, 44, -52, 43, 18, -43, -106, 60, -27, 47, -79, -56, 25, -37, 15, 16, -32, 36, -3, -66, 33, 17, 44, -33, 87, -24, -29, 76, -28, 59, 28, 70, 58, -58, 41, 32, -28, 11, 62, 24, 40, 14, 69, 58, -79, 60, -25, -92, 19, 2, -91, -93, -38, 21, 39, -44, 98, 2, 88, 18, -25, -86, -68, 24, 22, -32, 55, -8, 63, 19, -63, 33, -61, 12, 56, 97, 43, -4, 12, -38, -18, -2, -81, -23, 
  -7, 56, -10, -12, 64, -41, -63, 74, -58, 28, -31, -25, -67, -10, -13, -72, -22, 23, -22, 85, -26, -80, -16, 1, 24, 40, 66, -59, 53, -76, 72, 39, 12, -63, -19, -5, -52, 77, 34, -40, 38, -80, -73, -80, -17, -29, -33, -4, 68, -73, 71, -2, -5, 0, 62, -2, 14, -83, 64, -56, 54, 20, -25, -59, 9, 55, 21, 61, 56, -42, 48, -39, 40, 13, 45, 17, 8, 31, -20, -43, -5, 38, 35, 34, -5, 69, -44, -56, -61, 49, -59, -74, 35, -27, -83, -69, 83, 64, 19, -64, 46, 78, -15, -46, -75, 9, -18, -14, -42, 14, 32, 38, 50, -80, 2, 11, 30, 52, 16, 6, -76, 14, -67, -5, 52, -27, 22, 40, -15, -36, 8, 5, -19, 42, 28, 69, -38, -70, -28, 35, -37, 13, 38, -11, -61, 35, 6, -56, 39, -36, 4, 2, 4, -53, 73, -39, -66, 40, -16, -80, 59, 58, 39, -33, 2, 26, -7, -40, 4, -66, -65, -7, -21, -55, 51, -62, -37, -1, -24, 5, 56, -36, -15, -63, -68, -59, -52, -21, -55, -32, 19, -8, -21, -39, 34, -42, 19, -65, -59, -14, 67, 0, -64, 16, -9, -55, 37, 49, -71, 41, 9, 7, -59, 18, 27, -41, 54, 81, -8, -46, -37, -59, 49, 49, -13, -9, -49, -14, 47, -24, -33, 12, 7, -60, -28, -56, 37, 26, 40, -88, 54, 1, 37, -23, 39, 44, -69, -41, 69, -5, -54, -13, 25, -64, 13, 24, -2, 65, -27, 71, 9, 32, 67, 56, -39, 61, 10, -27, 23, -34, 31, 83, -36, 58, 5, 3, 55, -23, 47, -2, -60, 64, -44, -48, -1, -31, 9, -5, 78, -56, -72, -65, -4, 19, -34, 6, 44, 82, 10, 69, -39, 54, -30, 82, 0, -69, -41, -34, -24, 1, -53, 51, -56, -4, -28, -24, -6, -38, -36, 69, -1, -60, -38, 49, 44, -68, 54, 12, -65, 62, -72, -49, 22, -60, 10, 76, 60, 50, -55, -66, 60, -19, -80, 46, 77, 74, 22, 40, -20, 86, 9, 27, -24, -38, -27, -29, -14, -53, 50, 12, 24, -78, 49, 28, 53, 59, 30, 12, -42, -68, 59, -20, 20, 36, 77, 10, 16, -62, -56, -79, -3, 3, 62, 73, -27, 43, -44, 4, -59, -83, 39, -60, -34, -28, 47, 41, 46, 50, -7, 62, -16, 8, 76, 21, -65, -64, -85, -4, 65, 19, -53, -12, 38, 75, -25, 49, -43, 49, -25, -48, -32, -69, 54, -60, -25, -68, 51, 5, 32, 69, -21, -20, 2, 2, 54, -34, 56, -33, 91, 35, 6, 21, -41, -70, -3, -45, 26, -40, -19, -28, -4, -73, 70, 56, 12, -66, 66, -72, 51, -46, -42, 4, -80, 7, -10, -3, -36, -14, -6, -31, -3, -60, -73, 57, -31, 70, -74, -57, -50, 91, 74, -54, 64, -81, -73, 17, -12, 58, -14, 47, 86, -73, -74, 6, 71, 63, 85, 53, -22, -55, 84, -5, 32, 1, 76, 7, 19, 59, 85, -28, -1, -63, 48, -17, 45, -2, -64, 57, 10, -8, 34, 43, 55, -39, 41, -14, -38, 1, -40, 39, 53, -69, -67, 63, 46, 60, -4, 31, 23, -22, -55, 92, -17, -5, -52, 71, -31, -52, 85, 68, 14, 16, 38, 57, -81, 50, 55, 68, 42, 23, -56, 11, -83, 66, 58, -48, -42, 9, -69, -75, 63, 48, -72, -62, -69, -82, 58, -5, -48, -36, 69, -13, 16, 87, -71, -40, -7, -4, -18, -25, -11, -66, 16, -11, 64, 34, -21, 7, -70, -29, 66, 38, -18, -70, 66, 15, -46, 32, -61, -23, -65, 73, -23, 44, -29, 17, 54, -79, 26, -54, -50, 44, -49, 61, 10, 51, -3, 15, -22, 27, -74, 73, 67, 8, 28, -56, 83, 23, -68, -46, 
  9, 94, 20, 28, 86, 61, 20, 51, 73, 61, 12, -12, 60, 33, 82, 32, 91, -56, 18, -43, -53, 48, -19, 41, 7, -2, -48, 3, 63, 6, 18, 64, -25, 61, 47, -38, -17, 45, 58, 56, -44, -39, 35, 63, 73, 11, 31, -15, 2, 10, -69, 21, 15, -3, -7, 42, 78, 35, 57, 51, -69, 49, 28, -57, 92, 44, -8, 5, 28, -44, 35, 71, 48, 31, 72, 61, 90, -4, -6, -17, 71, 73, 67, 40, 33, -62, 3, -10, 78, 7, -23, 53, -23, -27, -15, 24, -32, 36, 70, 86, -6, 21, 21, -28, 34, 55, 49, -17, 67, 36, 65, 64, -85, -34, 43, 37, -49, -5, 12, -2, -48, -24, 20, 48, 32, -18, 37, -76, 13, 11, 15, 6, 85, -10, -83, -66, -48, 88, -46, 81, 47, -66, 104, -17, 0, -61, -9, -10, 51, -43, -65, 29, 59, -21, 13, 85, 77, -72, 10, -20, 69, 39, 33, 23, 69, -50, -62, -66, -30, 29, -35, 50, -22, -58, -18, 8, 34, -31, 9, -7, -20, 36, 55, -49, -59, -73, -37, -59, -28, 12, -47, 26, 47, 23, -73, -58, -74, 15, -66, 31, -9, -17, 54, 27, -1, -31, -1, 99, 46, -51, -13, 36, 12, -10, -26, 21, 28, -33, -65, 4, -15, -64, 14, -29, 38, 58, 9, -13, -19, 76, -19, -57, -17, 94, 20, -35, 40, -48, -73, -26, 40, -40, -15, -52, 7, 25, -43, -63, -45, -45, 35, -46, -37, -45, -26, 6, 34, -43, -69, 26, -49, 43, -5, -38, 44, 59, 65, 16, -54, 3, -62, 41, -12, 37, -28, 15, 28, 75, -116, 26, 13, -55, -88, -16, -31, -12, 57, 17, -27, -55, -105, 23, -8, -57, 67, 2, 99, 1, -8, -45, 10, 61, -41, -31, -31, -65, 85, 36, -38, 18, 62, 4, -46, -62, -69, -39, 0, -40, 70, 11, 7, 23, 53, 61, 38, 42, -74, 70, 46, -19, 49, 47, -18, -18, -64, 61, 53, -55, -17, -86, 18, -3, 45, -36, 59, -11, -21, -3, 87, 104, 3, 22, -33, 25, -126, 8, -42, 23, -20, -72, 28, -12, 66, 49, -40, -53, 9, 29, 28, -33, 47, 30, 33, 36, 85, 34, -52, -47, -26, 62, -15, -29, 44, -64, -17, 19, 23, 29, -61, -59, 42, -34, 64, -72, 92, 10, -5, 82, -14, 36, 58, -60, 90, -74, 51, -27, -22, 94, -46, -1, -87, 31, 11, -47, 28, 94, -20, 10, -23, -90, -4, -14, 96, 28, -33, -5, -3, -58, 42, -12, 75, 0, -20, -35, -32, -51, 69, -32, -10, -6, 6, 19, -10, 8, -23, -8, -28, -42, 73, -23, 99, 30, 46, 9, -18, 86, 50, -36, 4, 108, 33, -34, -80, -47, -64, 42, -51, -47, 3, -55, 50, -5, -6, -28, -24, 29, -57, -59, 1, 17, 68, -49, -64, 32, 52, -55, 5, -10, 44, 24, -10, 17, 27, 38, 30, -25, -60, -24, -84, 46, 67, -50, -45, -30, 4, 37, -9, -33, -11, 64, 4, 23, 63, 58, -7, -52, 76, 25, -3, -42, -5, 34, -84, 55, 16, -29, 44, -79, -71, -26, 95, -34, -46, 9, 101, -50, -84, -20, 34, -15, -60, 55, -34, 33, 50, -48, -33, 12, 70, -2, -36, 92, 33, -52, -12, 8, -16, 35, -24, 63, 11, 68, -55, 70, -46, -58, -88, -48, 58, 24, 87, -53, 47, -10, -69, -36, 77, -17, -34, -86, 85, -8, -66, 44, -54, -16, -49, 88, 84, 34, -8, -13, 42, -29, 20, 8, 24, 27, -36, 5, -86, 80, -56, 46, 30, 33, -49, -42, -43, 28, 18, 24, 31, 28, -22, 70, 21, -49, 76, -6, -103, 43, -26, 35, -34, -96, -72, -2, -47, -34, 54, 80, -66, -9, -53, 75, -3, 1, -87, 36, 
  39, 62, 65, -30, -12, -34, 76, -59, -39, 96, -57, 18, 65, -15, -70, -27, 72, 13, -60, 91, 58, 39, 22, 81, -26, 71, -12, -49, 22, -12, 67, -3, 48, -57, 51, -25, 36, 68, 27, -25, -13, -61, -14, 51, -68, 10, -40, 66, 18, 65, -19, 79, 30, -29, 11, 64, 70, 51, -60, -6, 33, -30, 37, -49, -8, 33, 7, 77, -31, 10, 29, -59, -31, 8, 37, -60, 34, -41, -36, 25, -36, 73, -54, -49, -32, 55, 52, 7, -39, 87, 28, 41, 7, -21, -48, -35, -47, -33, 90, -75, 2, 80, -18, -48, 23, -58, -44, -10, -39, 59, 12, -60, 39, 13, -10, 9, -6, 40, -13, 45, -56, 53, 61, 29, 32, -62, -8, -47, 12, -8, 26, -68, 30, -73, 19, 50, -1, -76, -35, -28, 83, -42, 90, -40, 45, -69, 32, 31, 79, -29, -56, -46, 55, -45, 13, -46, -24, -44, -80, -20, -11, 67, -56, -1, -39, -33, -36, -39, -44, 33, 38, -57, 15, 53, -22, 30, -17, 73, 18, -10, 12, -68, 55, -39, -66, -30, 36, -29, -18, -46, 34, 22, 67, -33, 68, -62, 1, -9, 47, -68, -21, -10, 75, 63, -64, 17, -32, 88, 76, 66, -46, -70, -16, 86, -94, 39, 44, -25, -30, 82, -10, 26, 60, 78, 32, -21, 35, 34, -71, -32, -67, 9, -2, 39, 19, 17, 78, 20, 21, 15, 44, -36, 10, -31, -37, 3, 61, 59, 59, -2, 42, -77, -34, -32, -60, 73, -42, 2, 53, 67, 2, 5, -21, 2, 71, 14, -25, 56, -6, 60, 15, 60, 21, -53, 31, -84, -76, 11, -35, -39, 72, -22, -7, 85, -6, 76, -57, 14, 63, 46, -38, -79, -10, 0, -17, 51, -3, 24, 81, -10, -63, 4, -27, -60, -32, -77, -6, -44, -50, -22, 33, 43, -19, -24, -22, -87, 24, -46, 11, 2, 62, 6, -7, 39, -56, 62, -40, 28, 5, -58, -75, 30, -73, 69, 53, -28, 16, -37, 25, -24, 52, -53, 39, 59, -69, 21, -77, 63, -46, 20, 10, -25, 63, -36, -4, 79, -17, 3, 54, -61, -30, -62, 30, 46, 10, 38, -71, -31, 78, 65, -64, -87, 62, -27, 74, 65, -39, 3, -44, 18, 71, 43, 0, -78, 31, 33, -44, 55, -6, -79, -8, 7, 24, 27, 25, -8, 10, 55, -7, -69, 2, -50, -41, -44, -22, -82, 46, 42, -29, -29, -19, 24, 12, -43, 21, 84, 75, 8, 2, -37, -58, 63, 86, -34, 61, -44, 37, 37, 2, -67, 72, -5, 47, -13, -54, -67, -1, -40, -75, 78, 53, 52, 24, 74, -46, -16, -5, -29, -43, -8, 31, 40, 7, -72, 19, 16, 2, -84, 9, 85, 10, -33, -35, 32, -50, -70, -10, 72, -26, 57, -67, 49, -83, -44, -70, -36, -82, -14, -51, 50, -28, -42, -12, 12, -57, 76, 55, 34, 30, 66, 5, 9, 1, 0, -9, 48, 33, 49, 46, -18, 44, 62, 48, -51, -61, 15, -68, -67, -85, -19, -55, -60, 43, 10, -38, -16, 41, -42, -17, 16, 16, 2, -15, -72, 55, 40, 21, 33, -23, 26, -49, 9, 58, 64, 20, 38, 59, -58, -54, 36, -72, 52, -74, 24, 17, -1, 62, 34, -59, 59, -4, -80, 57, -10, 39, -69, -23, -66, 6, -60, 48, -21, 50, 6, 22, 61, 1, -49, 58, -30, -68, 40, 34, 64, 42, -91, 40, 8, -43, -36, 58, 60, -29, 34, -77, -18, -65, 79, -4, 56, 9, 17, -77, 78, 49, 8, 66, -21, -61, 74, 26, 60, 72, 50, -78, 42, -8, -61, 77, -36, -86, -22, 27, -29, 82, 1, -45, -17, 72, -51, 44, -32, -56, 46, -54, 63, 48, 8, -47, 57, 60, 40, 14, 57, -76, -78, 1, 25, -68, -61, 
  45, 8, -32, 32, 12, -25, -15, -31, 52, -42, -27, -26, 15, 49, -41, -73, -12, -62, 19, 29, 51, -19, -57, 3, 13, 15, 35, 60, 63, 11, 77, 45, 58, 21, -52, -6, -28, 76, -50, -31, 71, 68, 36, 41, -72, -25, 65, -10, 16, -25, -98, -60, 70, 36, -39, 92, -67, -22, -43, 24, -1, 1, 0, 42, 5, 47, 28, -2, 37, 78, 39, 11, 68, -20, 6, 46, 56, 39, 17, 30, 65, 46, 17, 29, 83, 63, -8, 5, -44, -59, 15, -34, -3, -60, 50, -24, -72, -49, -22, -32, 21, -12, -81, 92, 51, 36, -23, 20, 11, 50, -29, -76, -10, 41, -6, 61, 22, 28, 65, 54, 29, 14, -38, -30, 0, 46, -5, 45, -72, 71, -45, -53, 19, 61, -2, -80, -41, -24, 35, 60, -36, 22, -20, -69, 84, -73, 82, -18, 73, -7, 84, 17, -41, 51, 71, -66, 59, 34, 27, 85, 38, -23, -66, 36, 21, 98, -78, -32, -19, -65, 47, 30, -4, -14, -42, -13, 21, -44, 31, 36, -74, 67, 7, -42, -60, -57, -60, 37, -62, -53, -12, 55, -58, 35, 71, -87, 18, -13, 33, 21, -72, 32, -77, 41, 50, -55, -6, 81, -40, 48, 52, 41, 32, -15, -1, -25, 68, 46, 50, -77, -18, 4, 58, -27, -68, -29, -39, 46, 27, 60, 25, -37, 40, 34, -33, -63, -16, 1, 47, 10, 29, -19, 87, 47, 26, 23, -31, -75, -68, -77, 6, -19, 53, -55, 13, 91, 38, 42, 14, 13, -19, -68, -70, -53, 82, 21, -32, -69, -31, -32, 4, -60, 47, -14, 30, -29, -63, -40, 52, -51, 20, -43, -13, -79, -9, 73, -68, -36, 72, -28, 2, -80, -83, 57, -49, 22, 5, 66, 10, 20, 77, -60, -97, 29, 40, 13, -44, 25, -12, 37, 14, -13, -63, 7, 9, -91, 49, -74, 87, 45, 22, 63, -26, -9, -3, 66, -33, 18, -63, -50, -32, 9, -10, -60, 52, -59, 20, 60, -49, -3, -1, 43, -37, -15, -69, -36, -35, 22, 51, 85, -55, 27, -27, -32, 25, 49, -31, 97, 43, -18, -38, 9, -20, -94, 31, 39, -39, -1, 68, 25, 25, -35, 73, 62, 84, 51, 1, 47, -53, -39, -69, 22, 8, 15, 49, -11, 73, 14, 76, -29, 55, 22, -41, 50, 80, 11, 27, -53, -10, 55, -3, -61, 63, -55, -52, -19, -62, 84, -2, -87, 21, 61, 64, 51, -44, -39, -32, -41, -48, -34, -3, -32, 41, -53, -8, -36, -31, -56, -46, 66, 59, -53, -15, -18, 31, -32, -27, 20, 13, 14, -8, 29, 45, 50, 63, 50, 21, 1, 47, -41, -39, 34, 64, -48, -46, -39, -66, -79, 18, 23, 80, -55, -4, 16, 11, -2, 82, -78, -12, -77, -3, -53, 3, 17, -22, 24, 26, 71, 20, -58, 82, -36, -11, 48, 26, -43, 5, 55, 70, -19, 6, 64, -39, 69, 58, -1, 75, -79, 13, -75, 36, 20, -31, -53, -60, 47, 55, 13, 17, 40, -59, 63, -64, 31, -16, 7, -24, 26, -26, 85, -80, -24, -36, -48, 83, -19, 46, 14, -38, 64, -2, -27, -63, 44, 50, 39, -77, -80, -16, -42, -34, -38, 14, -20, -47, -20, -60, -52, 16, -21, -8, 29, -91, -58, 53, -34, 16, 2, -62, -25, 84, -16, -97, -22, -60, 49, -40, -11, -16, -20, 41, 41, -70, -73, 1, -89, -29, 80, 66, 68, 15, 46, -3, -48, -57, -17, -2, -54, 64, 5, 23, 48, 35, 60, 71, 10, -53, 54, -63, 13, -29, 72, -17, 15, -93, -25, 5, -96, 55, 24, -28, 12, 64, 58, -35, -53, 43, -53, -34, -59, -67, 80, -45, 14, 69, 8, 5, -6, 50, 88, 56, -40, 24, 73, 19, 57, 76, 42, -59, -68, 
  -86, 74, -32, 65, -49, -2, 66, 35, 70, -38, 31, -4, 82, 80, -72, 30, 59, -4, -55, 23, -81, -60, -49, 28, -25, -55, -20, 11, -40, -7, 64, 26, -43, 12, 60, 68, -12, -16, -44, 14, -43, -55, -29, 85, -29, 15, 39, 30, 31, -2, -57, 31, -21, 17, -72, 54, -54, -6, 52, 69, 16, -66, -44, -63, -5, 29, 30, -50, -20, -64, 58, -75, 10, -78, -58, 76, 19, 50, 56, -44, -78, 80, 74, -46, 15, -8, -37, -4, 22, 17, -2, -21, 30, 31, 32, 60, -17, -68, -3, -22, 4, 17, 73, 51, 63, -11, 9, 57, -76, -11, 7, -1, -54, 33, 36, 64, -16, 1, -26, 48, 68, 28, -22, 23, -49, 31, 38, -53, -11, -54, -40, -60, -35, -72, 13, -46, 3, -62, -19, -38, 26, 34, -27, 41, -1, 53, -53, 28, 73, -22, 42, -1, -52, -57, 30, 80, 50, -61, 44, 26, -24, 28, 13, 76, -40, -61, 49, 59, -47, 52, -56, -80, 12, -32, 70, 84, 52, 68, -10, -22, 17, 60, -7, 45, 47, -23, 23, 19, 88, -63, 46, -36, -6, -80, -7, 9, -60, -2, -70, -13, -76, -30, 21, -65, -23, -26, -39, -42, 0, -6, -38, 74, 73, -44, -70, 22, -12, 86, 44, 75, 41, 67, -43, 81, 70, -10, 46, 36, -22, 7, -16, 0, 58, 63, 22, 69, 14, -77, 41, 29, 83, 56, 93, -23, -71, 51, -55, -16, 33, 76, -78, -9, 19, -45, -24, -7, 6, -18, -26, 23, 10, -93, -20, -4, 30, 3, -65, -79, -3, 61, -73, 39, 56, -33, -12, -44, 56, 40, -14, 81, -45, -46, -49, 62, -42, 66, 86, 77, -77, -88, 32, -59, -62, -18, 41, -96, 27, 35, 66, -2, 62, 23, -5, -8, 78, 27, 77, -7, 19, -21, 94, -54, -3, 66, -51, -102, 69, -35, 7, 53, -99, 23, -20, 10, 27, 51, 2, 72, 92, -12, 23, -10, 28, 45, -78, 46, 60, -14, 82, -27, -14, 56, -72, -58, 47, 29, -31, 43, -16, 61, -39, 26, 47, 58, -109, -26, -64, 44, 42, 15, 48, 6, 89, -34, 11, 1, 49, -8, 23, -30, 19, 16, -52, -11, 15, 27, 21, 66, -70, 71, -73, 19, -52, -41, 43, -82, -19, -63, 50, 16, 59, 15, 57, 3, -40, -28, 36, 22, -76, 46, 53, -55, 58, -91, -71, -18, -22, -7, -60, -2, 52, 69, -4, -32, 39, 24, 3, 40, 34, -81, 63, 67, 34, -44, 41, 25, 35, -64, 31, 36, -12, -8, -9, 36, 27, 47, -34, 58, 47, 1, -27, 18, 20, 10, 32, 46, -29, 22, 61, 19, 89, -9, 16, 20, -55, -40, 35, -10, -24, -17, 18, -21, -27, -23, -58, -8, 95, -44, -29, 26, -43, -38, -82, 63, 27, -31, -44, -53, -54, -69, -26, 59, 11, -69, 6, -39, 77, 20, 36, 64, -2, -36, 14, 56, 30, -65, -24, 45, -46, -11, -55, -66, -48, 20, 64, 43, -51, -21, -72, -56, 26, 52, 57, 14, 76, -33, 61, -62, -3, 28, -55, 68, 18, -25, 7, -14, 14, 10, 64, 5, -44, -1, 26, 65, -13, -62, 45, -49, -21, 62, 38, -70, 32, 24, -13, 68, 42, -36, -6, -1, -12, 7, 11, 26, -33, -72, -44, 8, 8, -58, 60, 66, 29, -55, -24, 16, -59, 25, -72, 37, -67, -23, 58, -47, 46, -36, 26, -59, 77, 37, 3, 10, 42, 38, 55, 2, 7, 40, -48, 38, -55, 27, -14, 46, 72, -60, -19, -72, -17, -20, 41, 5, -75, -48, 40, -62, -77, -22, -31, -29, 68, -63, -45, -69, 73, 94, -3, 1, -61, -39, -88, 64, -26, -52, 32, 52, 28, -60, -13, 66, -83, -57, 3, 28, 16, -21, -50, -22, 2, -33, 
  0, 13, 55, 43, 22, -82, -54, 7, 60, 33, -22, -10, -76, -73, -24, 56, 32, -60, 61, 23, -46, -70, -13, -40, 20, 55, 38, -30, -28, 1, -68, -6, -89, -37, 81, -54, 48, 54, 12, -54, -45, -13, -48, -51, 82, 26, 15, -9, 74, -58, 59, -6, -14, -42, 105, -97, -64, -18, 11, -16, 56, 70, -10, 41, -88, -34, -72, -67, -37, -1, 5, -8, -23, -55, 36, -81, -25, 51, 48, -26, 8, -55, -46, -74, 25, -36, 80, -55, 82, 9, 91, -49, -27, 92, -6, 22, 51, 97, 1, 13, -35, -66, -45, -50, 66, 25, 41, 2, 46, -47, -39, 55, -33, 7, 26, 20, 71, -52, -35, 46, 39, -52, 9, -69, 66, 38, -20, -32, 35, -35, -57, 38, -35, 63, 63, 54, 8, 75, 5, 57, -63, 19, -66, -34, -57, 9, 54, 11, 44, 4, -77, 71, 24, -18, -9, -39, 5, -67, 54, -81, -64, -39, 34, -1, -24, 43, 23, 6, -94, 51, 71, -28, 57, 50, -26, -88, -23, 64, 67, 1, 34, 50, 32, -37, 77, 19, 53, -50, -8, 24, 34, -11, 13, 74, -27, -25, 30, -10, -1, -51, 19, 70, -2, 13, 10, 6, -70, -36, -93, -26, -20, 15, 45, -31, 21, -18, -2, 25, -64, -53, 61, -38, -82, 27, -22, -46, -65, 21, 29, 9, 7, -58, 5, 34, 15, 61, -44, 58, 97, 41, -44, 44, -67, 65, 25, -34, -24, 29, 85, -18, 84, -19, -23, -48, -74, -53, 23, -2, -14, 104, 75, 95, 30, 2, 75, 18, 62, 30, 36, 67, -48, -66, 58, -26, 93, -44, -49, 12, -8, 65, -46, 55, 91, -61, -34, 69, -72, -54, 7, -16, -13, 66, 27, -18, -66, 9, 45, 2, 22, 23, 6, -11, 4, -19, -2, -20, -41, 53, -6, 92, 4, 25, 100, -46, 98, -19, 10, -46, -54, 30, 91, 4, 19, -18, 55, 29, -23, -53, -60, -19, -48, 83, -56, -53, 61, -30, -76, 59, -18, 7, 84, 28, 14, -35, -25, 48, 65, -47, -8, -48, -27, 9, -68, -18, -30, 47, -76, -54, -78, 47, 72, 75, -37, 52, 78, 59, 44, -85, 15, -23, -43, 108, 16, 34, -94, 92, 45, -54, 0, 3, 56, -9, -41, 54, 12, -39, -8, -25, -23, -35, -27, -2, 13, 4, 2, -34, 82, -40, 38, -78, -6, 66, 15, -57, 67, 36, 64, 20, -23, 35, 35, 35, 33, -21, 24, 32, 75, -15, 35, -12, 0, -77, -4, 2, -20, 71, -102, 54, 17, 16, -7, -3, -24, 8, 58, 49, 28, 66, -23, -21, 8, -23, -4, -61, -46, 60, -4, -11, -45, 10, -49, 58, -55, 63, -65, 53, 2, 16, -18, 47, 24, -13, 82, 51, 28, 49, 3, 47, 46, -54, -39, -38, 1, 93, 11, 88, -59, 6, 50, -45, 40, 45, -65, 41, 67, -46, -98, 0, 21, 90, -8, 12, 45, 14, 10, -48, -73, 85, 60, 107, -67, -40, -46, -14, 59, 49, 3, 41, 52, 22, 19, -27, 8, -30, 27, -54, -10, 64, 36, -17, 41, 44, 79, -16, -31, -58, -34, 102, 17, -14, -63, 72, -28, 75, -55, 5, 106, -42, 12, 40, -64, 19, 68, -28, 57, 48, 76, -19, -10, -50, -43, 30, 16, 62, -58, 92, 73, 9, -82, -25, 26, -39, 25, -72, -39, 56, 11, -39, -44, -11, -35, -84, 32, 55, -19, 17, -66, -65, 46, 31, -60, 77, 34, 13, 50, -25, 77, -71, -76, 51, 78, 108, 9, 60, -90, 32, 43, 44, -15, -9, -48, 81, -19, 90, 56, 36, 39, -20, -89, 25, -59, 27, 6, 9, 57, -7, -36, 30, -8, -10, 30, 46, -65, 16, -73, 65, 88, 80, -16, -67, 41, -88, 37, 2, 5, -59, 33, -59, -38, 72, 
  44, -82, -68, -72, 10, -6, -63, 71, -9, -53, 44, 76, -83, 55, -10, -16, -14, -21, 64, 71, -40, 17, -75, 1, -64, -63, 12, -51, 72, 6, 15, 70, -61, 65, 8, 73, -71, -27, -36, 50, 46, 48, -43, 69, -82, 17, 57, 1, 64, -10, -46, -52, 72, -70, 65, -12, -18, 39, 76, -69, -28, 2, -5, 37, 19, 32, -20, 22, -4, -20, -61, 45, -8, -42, -23, -67, 38, 45, 59, -16, -22, 72, -38, -41, 69, 17, 10, 7, 77, 43, -77, 2, 39, -11, 32, 1, -25, 62, -45, -49, -78, -31, -7, 69, -23, -9, -14, -26, -83, 12, 44, 33, -69, -59, 24, -73, -21, 28, -13, 67, -76, -58, -6, 54, 35, -34, -30, -64, -24, 79, -4, -8, -2, -39, 12, -81, -80, 57, -68, 33, 62, 25, 46, -67, 53, -15, -58, 52, -62, -7, -2, -51, -27, 49, -51, -17, 73, 37, 45, -60, -26, -64, -67, -28, 28, 75, 14, -73, -64, -30, 64, -75, -65, 35, -81, -4, 25, 11, -45, 60, -40, -79, -46, -72, 21, -47, -68, -78, -75, 61, 30, 66, -62, -1, -55, -3, -84, -44, -55, -74, 21, 73, 27, 55, 26, -57, -6, 20, 47, -76, 33, 24, -71, 13, -3, -27, 23, 35, -41, -58, -55, 77, 65, 21, -69, -64, 21, -70, 26, -21, -29, -39, -4, 9, 23, -2, 71, 38, -38, -43, -21, -65, -28, 8, 42, -43, -15, -84, 24, -45, 1, 59, 47, 27, -64, 35, -77, 48, 6, -34, -50, -41, 61, -23, 59, 36, -84, 38, 71, -55, 56, 19, 19, 53, -61, -32, 25, -52, -76, 12, -3, -4, 53, 44, 53, -79, -78, 26, 21, 28, -71, -37, 28, -45, 14, -83, -25, -22, -48, -24, 13, -76, 70, -33, -61, 48, 59, 73, 17, -41, -56, -60, 1, -63, -77, 44, 14, 40, 28, -50, 72, -54, -42, 5, 16, -52, 25, -77, -22, -60, -19, 41, 33, 79, 47, 71, 46, -26, 15, -10, 68, -27, 56, -27, -46, -4, 76, -48, 72, 37, 54, -30, 27, -48, 33, 43, -53, 57, -82, -84, -7, -62, -38, 0, 16, -82, -6, 11, -46, -59, -75, 32, -46, -27, 39, -3, -43, -49, -12, 22, 68, 54, -78, -35, 65, -67, -14, -35, 9, 20, 7, 28, -25, -34, -58, -24, -5, 25, -35, -32, 79, -60, -24, -29, -42, -60, -2, 73, -40, 66, 31, -44, -48, -1, 23, 29, -79, -61, 59, 46, -53, -27, 24, -17, -56, -36, 72, -36, 66, -4, -20, 22, 52, -81, -56, 64, -39, 6, -53, 31, 16, 63, 52, -49, -76, -74, 43, 8, -18, -81, 36, -1, -74, -67, 49, -10, -40, -24, 10, -23, -75, -29, 13, -1, 20, -67, 0, 38, -38, -52, 63, -68, -53, -71, 28, -55, 71, -55, -2, -54, -16, -57, -34, 34, -6, -47, 26, 63, -82, 44, 24, -61, 64, 37, -76, 71, 19, 27, -4, 15, -5, -64, 63, 26, -70, -67, 41, 43, 8, -77, -36, 49, -79, -79, 0, -18, 27, 65, -59, -65, -71, -4, 1, -75, -70, 22, -78, -9, 7, 32, -71, -77, -43, 8, -34, -52, -82, -80, 11, 59, 49, -26, -7, -6, -58, 49, -61, -61, -60, 31, 23, 50, 29, -81, 61, -27, -40, 71, 72, -40, 39, 4, 11, -21, -30, 42, -87, 19, -80, -78, 67, -14, 2, -44, 74, 16, -39, 32, 9, 69, -72, -22, -26, -10, -73, 76, 70, -57, -14, -70, 45, 50, -38, -61, 62, -9, -73, -6, 11, -11, 68, 72, -10, 60, -25, 61, 49, -4, -75, 45, -49, -72, -17, -47, -10, 33, 58, -61, -72, 9, -65, 0, 27, 72, -40, -17, 48, -39, 79, -32, 31, 42, -71, -25, -31, -59, -20, 33, -16, -14, 
  6, -85, -93, 14, -49, -19, -79, -54, 16, 64, 1, 40, -35, -40, -54, -20, 22, 4, -73, -19, -52, -31, -58, 60, 12, 61, 59, -37, -33, 70, 80, -37, -69, 70, -84, -52, -18, -85, 52, -21, 71, -42, 74, -49, 57, -11, 48, 61, 18, 6, -8, -62, -48, -91, -15, 22, 68, -8, -14, -30, 74, 67, -1, 56, -24, -19, -9, -73, 23, -58, -66, 56, 39, 59, -39, 11, -33, -24, -95, 19, 70, 50, 3, 35, 54, -68, 18, 41, 4, 12, -1, -19, -33, -39, 51, -65, -9, -9, 1, -36, 52, 71, 81, -3, -53, -30, -34, 65, -65, 77, -61, 16, -24, -76, 8, 30, -31, 72, 10, -33, -6, 23, -35, -80, 61, -58, 45, 53, -66, -56, 71, -44, 13, 38, 34, -52, -49, 22, -13, -62, -6, -65, -65, 37, -81, -50, -25, 36, 45, 15, 75, 70, -22, -48, -16, 65, 28, 55, -4, 16, 32, 21, 12, -69, 4, -36, -39, -24, -16, -47, 20, -64, 31, 5, 71, -18, -43, 3, 30, 5, 28, -32, 9, -30, -27, 51, 68, -74, 59, 7, -7, 43, -3, 81, -41, 10, -51, 64, -15, -48, -21, -65, -76, -3, 38, -25, 37, 58, -96, -20, 26, 76, -36, -78, -19, 20, -42, 53, -25, -1, 51, 16, 50, 47, 30, -5, -41, 72, 24, 35, -11, 34, -47, -10, 33, 2, -8, 46, -28, 72, 3, -63, -40, -32, 20, -37, -73, -39, -27, -62, 29, -21, 36, 20, 4, 12, -21, 43, 19, -41, 25, 37, 36, 26, -50, -26, -21, -67, -27, 51, -27, 56, 63, 67, -62, -22, 71, 79, 114, -1, 47, 33, 90, 12, 6, 34, 60, -70, 30, 59, 0, 64, -23, -1, 47, 67, -14, -65, -72, 48, -12, 3, 105, 61, 8, 6, -74, 17, -7, 24, 27, 18, 89, 53, 90, 31, -45, -61, -60, -10, -16, 0, -47, 31, 64, -13, 0, 57, -59, 46, 3, 21, -43, -27, -20, -73, -15, 11, -88, 107, -27, 23, -15, -71, 91, -37, -6, -45, 46, 55, 9, -50, 27, 53, 116, -61, 79, -3, -12, 48, 23, 35, -20, 92, -28, 10, -38, 45, -5, 66, 15, -43, -25, 71, -5, 34, 26, 72, -35, 4, -37, 80, 27, -55, 80, -37, 19, 11, 70, 8, 38, 19, 49, 60, -40, -63, -54, -19, 9, 62, -85, -22, -59, 71, -10, 90, 75, 20, 83, -44, -2, 6, 56, 9, 67, -23, -37, 63, 86, 8, 23, 41, -15, -53, -83, -78, -50, 19, 78, -64, 26, -23, -9, 38, 52, 32, 48, -70, 20, 87, 44, 38, -20, -42, 45, 43, -50, -17, 65, -72, -39, 29, 30, 15, 77, -97, -21, -23, -4, 10, -83, -66, 53, 14, -17, 88, -92, 71, 103, -63, -72, -55, -14, -64, -58, 71, -1, 59, -26, -55, 46, 28, 76, 44, 55, 13, -12, -43, -5, 3, -63, 75, -51, -84, -13, -19, -58, 2, 20, -26, 77, 31, -51, -37, -21, 7, 51, -55, -55, 71, 34, 50, -10, -30, -3, -39, -84, 14, -10, -39, -21, 75, 73, -16, 63, -47, 29, 68, 59, 34, 22, -45, 88, -36, 5, -9, 56, 10, -69, 65, 41, -54, -32, 70, -46, 67, 25, -27, -66, -79, 13, -72, 84, -53, 44, 68, 60, 52, 48, -40, -34, 30, -32, 74, -18, -33, 79, -59, 3, -47, -1, 71, -59, 86, 94, 115, -45, -80, -30, -23, -58, 27, 0, 33, -22, 37, -1, 10, 22, -20, 75, 28, -70, 45, -20, 3, 16, -86, 14, 50, -9, -32, -7, -54, -33, 33, 20, 29, -83, 57, -23, -23, -70, 27, 75, -50, 84, -45, 70, -48, 84, -92, 17, -45, -53, 81, 47, -49, -55, 30, -49, 60, 13, -43, -54, 8, 58, -26, 92, -64, 
  -33, -29, -59, -10, 42, 24, 46, 56, -2, -8, 63, -55, 27, 35, -17, -81, 12, 48, 68, 37, 85, -51, -1, 43, -33, 70, 34, -50, 6, -43, -2, 76, 12, 80, 16, 60, -65, 8, 83, 52, -24, 36, -66, -18, -1, 62, 2, 61, 22, -2, 68, 48, 38, 13, 26, -59, 58, 23, -24, 80, -56, 59, 55, -35, 67, -72, 4, 25, -53, -66, -75, 26, -22, -14, 2, 83, -52, -64, 27, 37, -57, -25, 39, 85, -15, -1, 86, -42, -28, 10, -32, 73, -12, 60, 10, 69, -52, 76, -37, 15, -53, -49, -32, -18, -12, 4, -38, 23, -49, 46, -30, -58, 26, 42, 30, -48, -5, -60, -32, 39, -25, -42, -22, -17, 78, 13, 27, 32, 61, 51, 52, 2, -13, -34, 62, 44, 55, 53, 50, -76, 5, 26, -69, -8, -11, 38, 30, -7, 33, 29, -11, -10, -20, -48, 41, -1, -22, 8, 34, -14, -48, -2, 55, -10, 66, 60, -52, -6, 47, 82, 88, -32, -23, 35, -54, -34, 71, -2, 41, 35, -58, -82, -27, -62, -53, 17, -50, 71, 67, -12, -9, -1, -3, -57, 72, 28, -56, -42, -55, 55, 51, -2, -43, -72, 63, 77, -13, -36, 76, 44, -42, -11, 77, -76, -28, 26, -79, -60, -9, -47, 52, 31, 73, -40, 86, 74, -31, 72, -28, 28, -42, -8, 86, -3, 30, 44, -33, 64, -56, -7, 81, 13, -50, -24, 88, 34, 17, -3, 61, -16, -83, -28, -10, -63, -43, -14, 54, 65, 38, -74, -57, -35, -18, 49, -15, -8, -71, 41, -67, -50, 32, 29, -5, -52, -66, -36, -81, -61, 39, 43, 28, 18, -51, -82, -42, 29, 77, 61, -12, -71, 59, 22, 5, 72, -15, 53, -39, -38, -63, 13, -31, -44, 30, 62, 21, 10, 20, -19, -10, -31, -21, 21, 65, -7, -71, 29, 39, -58, -46, 29, -94, -77, 15, -62, 1, 60, -61, -11, -56, 18, -77, -73, 27, 0, -61, 10, -61, -41, 54, -3, 41, -58, 47, -30, -81, 23, 54, -75, -21, -47, 22, 44, 61, -70, 48, 53, 45, -12, -43, -16, 9, -53, -78, 36, 13, 14, -63, -23, -9, -9, -5, -40, 8, 72, 69, -6, 1, 34, 10, 18, 25, -63, -83, 28, 32, 31, -12, -48, -10, 14, -41, 5, -54, -82, -15, 32, -74, 78, -85, -33, 47, -18, -68, -69, -60, -66, -58, 76, -82, 10, 74, -32, 12, 6, -53, -44, -57, 49, 3, -34, -62, -21, 1, -60, -17, -73, -65, 7, 27, 87, 7, 49, 86, -2, 54, -60, -69, -22, 11, -59, -40, -57, 22, -20, 40, -11, 17, -46, 51, -54, -21, -41, 30, 16, 25, 10, -23, 53, 53, 90, 58, 37, -59, -14, 72, 43, 71, 19, 12, -39, 2, -5, 40, -17, 14, -87, -49, -26, -38, -14, 36, -26, -3, 71, 29, -51, 45, -44, -67, -33, 68, -39, 25, -60, 73, 26, 3, 54, 35, 8, 58, 3, -55, -51, 50, 64, -19, 65, 27, 44, -10, -78, -67, -40, -40, 73, 19, -2, -40, -56, 38, -32, 56, -80, -48, -79, 15, -30, 4, 57, 59, 43, -60, -66, 31, -66, 75, 61, -48, -60, -20, 67, 60, -37, -41, 36, -78, -20, -83, -79, -66, -71, 14, 59, -28, 53, 43, -67, 5, 34, -59, 38, 13, 71, 38, -15, -56, -65, 31, -72, 11, -38, 74, 34, -62, -27, 51, 13, 59, -87, -80, 66, 31, -62, 63, 10, -69, 48, -60, -55, -81, 65, 64, -19, 30, 42, 8, -7, -38, -91, -1, 19, -42, -5, -80, -3, 36, -37, 27, 50, -64, 18, 21, 35, 70, -25, 26, -5, 9, -60, 46, 9, -2, -6, -48, -60, -27, 48, 68, 55, -31, 20, 69, -12, -31, 3, 6, 75, -3, 38, 
  -1, 65, -8, -9, 29, -70, 61, -57, -37, -22, 34, -19, 49, 24, -77, 45, -24, -17, -29, -7, -10, -19, 72, -52, 26, 28, 46, 21, -16, 24, -21, 7, -26, 79, -2, 75, 10, -17, 77, 24, 50, -28, 18, -39, 55, 12, 49, -66, -2, -36, -36, -10, 82, 79, -64, 71, -59, -55, 73, -47, -4, 36, -79, -5, -48, 7, -58, 29, 8, 53, -56, 15, -13, -48, 80, -22, 55, 6, 20, -30, -27, 58, 42, -36, -37, -14, -8, 4, -26, 81, 16, 43, 31, -12, -5, -68, 76, -19, -47, 49, 43, 51, -32, 30, 68, -2, 44, 69, -78, -15, -54, -71, -61, 51, 3, -8, -7, -33, -1, 16, 33, -13, 74, 64, 54, -42, -29, -50, -69, 45, -65, 61, -38, -72, -63, 74, 31, 71, 4, 24, 67, -13, 57, -71, 72, -59, -20, -8, 62, 11, 22, 14, -38, 76, 24, 61, -56, 53, -56, 3, 17, 16, 56, -28, -63, 29, -70, -74, -17, 48, 67, 34, -71, -2, -11, 5, 49, 20, 61, 31, -59, -1, 12, -74, 75, 0, -63, -13, -25, 41, 6, 13, 86, 13, -59, 32, -90, -6, 40, -16, -33, 75, -33, -55, -32, 14, 69, 27, -25, -8, -32, 27, -14, -62, -77, 44, 86, 76, -51, 11, 5, 25, -3, 37, 55, 51, 10, 22, 51, 39, -25, -70, -28, -60, 86, -25, -49, 16, -82, -33, -33, 74, 60, 43, -70, -13, 75, 28, -87, 80, 74, -4, 8, -62, 82, -68, 11, -29, 18, 31, -44, 10, -5, -30, 31, 47, 31, -47, -74, 43, -36, 82, 69, 14, -77, 8, 27, 56, -27, 68, -60, 50, -85, 26, -21, 44, -58, 55, 74, 41, -34, 55, -37, -35, 65, -21, 5, -15, -63, 13, -48, -60, 57, -59, -52, -66, -27, -50, -30, -63, -27, -76, 25, 53, 0, 11, -60, 18, 71, 47, 35, -81, -66, 57, -14, 52, -25, 14, -35, -40, 63, 1, -18, 39, 8, 73, -27, -28, 72, -56, -92, -2, -5, -8, -38, -24, 7, -78, 51, 68, -15, -5, -1, -17, 43, 20, -27, -31, -25, -99, -67, 32, 87, -54, -15, 17, 63, 52, 5, -76, 47, -21, -6, -84, 25, -24, -53, -39, -1, -53, -53, 30, -28, 67, -78, 14, 15, -25, 46, -53, -69, -56, -65, -81, 42, 66, -6, -62, -46, -41, -1, 74, -9, -87, -33, -40, 15, 42, 13, 39, 31, -85, -23, 62, 61, 30, 55, -23, 24, 39, 47, 77, -45, 0, 60, -40, -58, 42, 15, -24, 47, 45, 41, 68, 77, -10, -31, -9, 69, -50, 31, 78, 5, 42, -44, -50, -43, 40, 37, 74, -66, 37, 59, -19, 47, 83, -5, -80, 75, 65, 44, -62, -28, 19, -22, 14, 78, 36, -16, 52, -48, -46, 32, -77, -56, 16, -55, -67, -46, -49, -39, 26, -69, -48, -58, 8, 35, -44, 73, 17, 45, 33, -30, 73, 63, -57, 85, 58, -104, 2, -6, 81, -51, -36, 13, -67, -70, 26, 49, -9, -30, -95, -72, 47, 49, -28, 62, 24, 7, -19, -95, 2, -63, 31, 46, -27, 28, -66, -11, -48, 45, -8, 27, -1, -24, 20, 13, -21, -6, -8, -69, 36, 8, -31, -46, -74, -68, 44, -45, 0, 64, -56, -1, 69, 12, 64, -68, 79, 11, -51, -32, -50, 29, -14, 69, -13, 58, 76, 69, 40, -56, -34, -89, -10, 18, -49, -59, -43, -65, -43, -24, -12, 34, 12, -9, -72, -67, -34, 2, -69, 20, 41, -55, 29, 53, 14, 0, 41, 40, 39, -36, 81, 49, -35, -8, 34, 9, 53, 25, 61, 58, -95, 52, 55, 57, -39, 38, -36, 59, 32, -30, 50, -29, 37, 75, 0, -17, -71, -56, 35, -70, 74, 84, -18, 0, -40, 31, -60, -67, 36, 
  62, -26, 92, -56, 50, 41, -23, -36, 9, -24, -23, 4, -29, 40, -17, 32, 43, -15, 49, -7, -55, 4, 26, -38, 0, -40, -6, 68, -27, 2, -39, -97, 88, -59, 53, -12, -50, 6, 26, -33, -79, -62, -76, 52, -42, 41, 24, -44, 36, 9, -81, 52, 64, -23, -80, 51, -23, -52, -34, 3, 38, -76, -37, 60, -9, 38, 73, -58, -15, 77, -92, -27, -63, 36, -3, 11, 69, 72, 97, -43, 56, 25, -30, 81, 52, -41, -70, -30, -22, 22, 54, -35, -26, -78, 38, 10, -68, 61, -64, -45, -66, 27, -1, 94, 49, 7, 7, -60, -56, 9, 75, 13, 54, 85, 55, 63, -16, 47, -13, 69, -68, 0, 30, -54, -17, -57, -67, -73, 8, 62, -24, 72, -54, 40, 44, 8, 56, 9, 42, 45, 44, -9, 49, 87, -40, 48, 21, -76, 68, 1, 16, -33, 22, 92, 81, -3, 54, 10, -62, -32, -13, -16, 25, -8, 16, 31, -77, 72, -9, -31, -18, -44, -12, 57, 13, -41, 69, -7, 10, 36, -67, 40, -42, -52, -8, 14, 28, -11, 36, 63, 21, -73, -27, -43, 67, -22, -15, 2, -61, -61, 13, -47, 47, -69, 25, -52, 100, 53, 75, -3, 89, 18, 2, 65, -18, 55, -23, 42, 28, -58, 72, 37, 71, -33, 68, -43, -33, 37, -68, 70, 61, -19, 39, 53, -12, -4, 55, 56, -43, -64, 52, -55, 9, -13, 34, 7, 55, -25, 57, 46, 43, 47, 40, -58, 79, -30, 85, -88, -10, -73, -92, -37, 30, -12, -40, 70, -25, 29, -72, -38, -15, 67, 78, 63, 9, 70, -5, -38, -51, 93, -41, 6, -64, 12, 30, 62, -10, 86, -60, 19, -105, -34, -52, -14, -3, -48, -25, -60, -6, -74, -12, 21, -81, 33, 20, 60, 106, 42, 29, 36, 46, 56, -17, -20, -78, -91, 39, 14, 14, 107, -47, -60, -38, 56, -28, 11, 16, 38, 88, 43, 12, -25, 47, -12, 5, -43, 80, -1, 39, -63, -78, -36, 9, 31, 75, -27, -52, 54, 86, 22, -56, 56, -41, 30, 0, -37, 45, 55, 13, -72, 74, 49, -7, -16, 42, 27, 0, -16, 45, -54, -5, -51, -36, -105, 17, -25, 11, -26, 18, 26, 89, -3, 63, -2, 43, 74, 24, -9, -59, -8, -38, -17, 72, -28, 87, 7, -5, 35, -54, -54, 65, 25, 62, -32, 56, -47, 49, 18, -71, -77, 30, -31, 38, 53, 14, 94, 64, 11, -68, -50, -64, -59, -4, -81, 67, 62, -20, -82, 80, 50, 12, 100, 39, -48, 73, -37, -33, -43, 79, 27, -48, -30, -65, 71, 18, -23, -25, 83, 14, 0, 15, 16, 25, -68, -2, 121, -24, -70, 39, 11, 15, 53, 45, -60, -27, 8, -3, -51, -97, -20, 81, -47, -89, 31, 19, 42, -34, 68, 48, -46, -63, 89, 31, -42, -17, 107, 2, 39, 92, 69, -51, 58, 23, 44, 89, -5, 76, -83, 35, -63, 14, 85, -50, -27, 30, 82, -42, -45, -62, -33, 62, -4, -54, 70, 41, 48, 23, 55, 7, 31, -100, 74, -66, 20, 42, -40, 18, -73, 73, -35, -38, 46, 18, 25, 37, 70, 31, 21, -33, 64, 10, -23, -86, 2, 70, 79, -80, 53, -57, -37, 68, -8, -39, -83, -34, -74, -69, -42, 20, -17, -26, 19, -56, 83, 85, -43, 22, 41, 10, -69, 57, 66, -72, 51, -82, -106, 16, 18, -66, -86, 28, 74, 76, 71, 42, -52, -30, 4, 55, -51, 6, 23, 38, 62, 53, 19, 31, -73, -4, -1, -17, -3, 59, -54, -10, -10, -43, -81, 71, 62, 75, 59, -50, 52, 38, -46, -84, -14, -63, -36, -63, 54, 84, 72, 39, -70, -66, -46, 86, -25, -74, 21, 52, 76, -15, 33, -49, 47, -20, -26, 
